digraph Tree {
node [shape=box, fontname="helvetica"] ;
edge [fontname="helvetica"] ;
0 [label="x[0] <= 52.5\ngini = 0.44\nsamples = 3120\nvalue = [1020, 2100]"] ;
1 [label="x[0] <= 42.5\ngini = 0.449\nsamples = 2056\nvalue = [701, 1355]"] ;
0 -> 1 [labeldistance=2.5, labelangle=45, headlabel="True"] ;
2 [label="x[7] <= 0.5\ngini = 0.438\nsamples = 1478\nvalue = [478, 1000]"] ;
1 -> 2 ;
3 [label="x[16] <= 0.5\ngini = 0.42\nsamples = 809\nvalue = [243, 566]"] ;
2 -> 3 ;
4 [label="x[0] <= 19.5\ngini = 0.425\nsamples = 777\nvalue = [238, 539]"] ;
3 -> 4 ;
5 [label="x[1] <= 64.5\ngini = 0.48\nsamples = 70\nvalue = [28, 42]"] ;
4 -> 5 ;
6 [label="x[34] <= 0.5\ngini = 0.42\nsamples = 40\nvalue = [12, 28]"] ;
5 -> 6 ;
7 [label="x[33] <= 0.5\ngini = 0.388\nsamples = 38\nvalue = [10, 28]"] ;
6 -> 7 ;
8 [label="x[10] <= 0.5\ngini = 0.368\nsamples = 37\nvalue = [9, 28]"] ;
7 -> 8 ;
9 [label="x[21] <= 0.5\ngini = 0.327\nsamples = 34\nvalue = [7, 27]"] ;
8 -> 9 ;
10 [label="x[2] <= 0.5\ngini = 0.271\nsamples = 31\nvalue = [5, 26]"] ;
9 -> 10 ;
11 [label="x[23] <= 0.5\ngini = 0.111\nsamples = 17\nvalue = [1, 16]"] ;
10 -> 11 ;
12 [label="gini = 0.0\nsamples = 14\nvalue = [0, 14]"] ;
11 -> 12 ;
13 [label="x[0] <= 18.5\ngini = 0.444\nsamples = 3\nvalue = [1, 2]"] ;
11 -> 13 ;
14 [label="gini = 0.0\nsamples = 1\nvalue = [1, 0]"] ;
13 -> 14 ;
15 [label="gini = 0.0\nsamples = 2\nvalue = [0, 2]"] ;
13 -> 15 ;
16 [label="x[1] <= 47.0\ngini = 0.408\nsamples = 14\nvalue = [4, 10]"] ;
10 -> 16 ;
17 [label="x[8] <= 0.5\ngini = 0.5\nsamples = 8\nvalue = [4, 4]"] ;
16 -> 17 ;
18 [label="x[20] <= 0.5\ngini = 0.32\nsamples = 5\nvalue = [1, 4]"] ;
17 -> 18 ;
19 [label="gini = 0.0\nsamples = 4\nvalue = [0, 4]"] ;
18 -> 19 ;
20 [label="gini = 0.0\nsamples = 1\nvalue = [1, 0]"] ;
18 -> 20 ;
21 [label="gini = 0.0\nsamples = 3\nvalue = [3, 0]"] ;
17 -> 21 ;
22 [label="gini = 0.0\nsamples = 6\nvalue = [0, 6]"] ;
16 -> 22 ;
23 [label="x[1] <= 27.0\ngini = 0.444\nsamples = 3\nvalue = [2, 1]"] ;
9 -> 23 ;
24 [label="gini = 0.0\nsamples = 1\nvalue = [0, 1]"] ;
23 -> 24 ;
25 [label="gini = 0.0\nsamples = 2\nvalue = [2, 0]"] ;
23 -> 25 ;
26 [label="x[9] <= 0.5\ngini = 0.444\nsamples = 3\nvalue = [2, 1]"] ;
8 -> 26 ;
27 [label="gini = 0.0\nsamples = 1\nvalue = [1, 0]"] ;
26 -> 27 ;
28 [label="x[0] <= 18.5\ngini = 0.5\nsamples = 2\nvalue = [1, 1]"] ;
26 -> 28 ;
29 [label="gini = 0.0\nsamples = 1\nvalue = [1, 0]"] ;
28 -> 29 ;
30 [label="gini = 0.0\nsamples = 1\nvalue = [0, 1]"] ;
28 -> 30 ;
31 [label="gini = 0.0\nsamples = 1\nvalue = [1, 0]"] ;
7 -> 31 ;
32 [label="gini = 0.0\nsamples = 2\nvalue = [2, 0]"] ;
6 -> 32 ;
33 [label="x[34] <= 0.5\ngini = 0.498\nsamples = 30\nvalue = [16, 14]"] ;
5 -> 33 ;
34 [label="x[27] <= 0.5\ngini = 0.483\nsamples = 27\nvalue = [16, 11]"] ;
33 -> 34 ;
35 [label="x[1] <= 87.5\ngini = 0.461\nsamples = 25\nvalue = [16, 9]"] ;
34 -> 35 ;
36 [label="x[32] <= 0.5\ngini = 0.355\nsamples = 13\nvalue = [10, 3]"] ;
35 -> 36 ;
37 [label="x[2] <= 0.5\ngini = 0.278\nsamples = 12\nvalue = [10, 2]"] ;
36 -> 37 ;
38 [label="gini = 0.0\nsamples = 7\nvalue = [7, 0]"] ;
37 -> 38 ;
39 [label="x[9] <= 0.5\ngini = 0.48\nsamples = 5\nvalue = [3, 2]"] ;
37 -> 39 ;
40 [label="gini = 0.0\nsamples = 2\nvalue = [2, 0]"] ;
39 -> 40 ;
41 [label="x[20] <= 0.5\ngini = 0.444\nsamples = 3\nvalue = [1, 2]"] ;
39 -> 41 ;
42 [label="gini = 0.0\nsamples = 2\nvalue = [0, 2]"] ;
41 -> 42 ;
43 [label="gini = 0.0\nsamples = 1\nvalue = [1, 0]"] ;
41 -> 43 ;
44 [label="gini = 0.0\nsamples = 1\nvalue = [0, 1]"] ;
36 -> 44 ;
45 [label="x[2] <= 0.5\ngini = 0.5\nsamples = 12\nvalue = [6, 6]"] ;
35 -> 45 ;
46 [label="x[31] <= 0.5\ngini = 0.444\nsamples = 9\nvalue = [3, 6]"] ;
45 -> 46 ;
47 [label="x[32] <= 0.5\ngini = 0.375\nsamples = 8\nvalue = [2, 6]"] ;
46 -> 47 ;
48 [label="x[18] <= 0.5\ngini = 0.245\nsamples = 7\nvalue = [1, 6]"] ;
47 -> 48 ;
49 [label="gini = 0.0\nsamples = 5\nvalue = [0, 5]"] ;
48 -> 49 ;
50 [label="x[8] <= 0.5\ngini = 0.5\nsamples = 2\nvalue = [1, 1]"] ;
48 -> 50 ;
51 [label="gini = 0.0\nsamples = 1\nvalue = [0, 1]"] ;
50 -> 51 ;
52 [label="gini = 0.0\nsamples = 1\nvalue = [1, 0]"] ;
50 -> 52 ;
53 [label="gini = 0.0\nsamples = 1\nvalue = [1, 0]"] ;
47 -> 53 ;
54 [label="gini = 0.0\nsamples = 1\nvalue = [1, 0]"] ;
46 -> 54 ;
55 [label="gini = 0.0\nsamples = 3\nvalue = [3, 0]"] ;
45 -> 55 ;
56 [label="gini = 0.0\nsamples = 2\nvalue = [0, 2]"] ;
34 -> 56 ;
57 [label="gini = 0.0\nsamples = 3\nvalue = [0, 3]"] ;
33 -> 57 ;
58 [label="x[0] <= 20.5\ngini = 0.418\nsamples = 707\nvalue = [210, 497]"] ;
4 -> 58 ;
59 [label="x[13] <= 0.5\ngini = 0.159\nsamples = 23\nvalue = [2, 21]"] ;
58 -> 59 ;
60 [label="x[31] <= 0.5\ngini = 0.087\nsamples = 22\nvalue = [1, 21]"] ;
59 -> 60 ;
61 [label="gini = 0.0\nsamples = 21\nvalue = [0, 21]"] ;
60 -> 61 ;
62 [label="gini = 0.0\nsamples = 1\nvalue = [1, 0]"] ;
60 -> 62 ;
63 [label="gini = 0.0\nsamples = 1\nvalue = [1, 0]"] ;
59 -> 63 ;
64 [label="x[11] <= 0.5\ngini = 0.423\nsamples = 684\nvalue = [208, 476]"] ;
58 -> 64 ;
65 [label="x[0] <= 23.5\ngini = 0.428\nsamples = 657\nvalue = [204, 453]"] ;
64 -> 65 ;
66 [label="x[1] <= 21.5\ngini = 0.479\nsamples = 88\nvalue = [35, 53]"] ;
65 -> 66 ;
67 [label="gini = 0.0\nsamples = 3\nvalue = [3, 0]"] ;
66 -> 67 ;
68 [label="x[15] <= 0.5\ngini = 0.469\nsamples = 85\nvalue = [32, 53]"] ;
66 -> 68 ;
69 [label="x[21] <= 0.5\ngini = 0.483\nsamples = 76\nvalue = [31, 45]"] ;
68 -> 69 ;
70 [label="x[17] <= 0.5\ngini = 0.489\nsamples = 73\nvalue = [31, 42]"] ;
69 -> 70 ;
71 [label="x[31] <= 0.5\ngini = 0.493\nsamples = 70\nvalue = [31, 39]"] ;
70 -> 71 ;
72 [label="x[9] <= 0.5\ngini = 0.496\nsamples = 68\nvalue = [31, 37]"] ;
71 -> 72 ;
73 [label="x[1] <= 42.5\ngini = 0.487\nsamples = 55\nvalue = [23, 32]"] ;
72 -> 73 ;
74 [label="x[3] <= 0.5\ngini = 0.473\nsamples = 13\nvalue = [8, 5]"] ;
73 -> 74 ;
75 [label="x[33] <= 0.5\ngini = 0.245\nsamples = 7\nvalue = [6, 1]"] ;
74 -> 75 ;
76 [label="gini = 0.0\nsamples = 6\nvalue = [6, 0]"] ;
75 -> 76 ;
77 [label="gini = 0.0\nsamples = 1\nvalue = [0, 1]"] ;
75 -> 77 ;
78 [label="x[1] <= 26.0\ngini = 0.444\nsamples = 6\nvalue = [2, 4]"] ;
74 -> 78 ;
79 [label="gini = 0.0\nsamples = 3\nvalue = [0, 3]"] ;
78 -> 79 ;
80 [label="x[24] <= 0.5\ngini = 0.444\nsamples = 3\nvalue = [2, 1]"] ;
78 -> 80 ;
81 [label="gini = 0.0\nsamples = 2\nvalue = [2, 0]"] ;
80 -> 81 ;
82 [label="gini = 0.0\nsamples = 1\nvalue = [0, 1]"] ;
80 -> 82 ;
83 [label="x[1] <= 69.5\ngini = 0.459\nsamples = 42\nvalue = [15, 27]"] ;
73 -> 83 ;
84 [label="x[20] <= 0.5\ngini = 0.308\nsamples = 21\nvalue = [4, 17]"] ;
83 -> 84 ;
85 [label="x[33] <= 0.5\ngini = 0.198\nsamples = 18\nvalue = [2, 16]"] ;
84 -> 85 ;
86 [label="x[5] <= 0.5\ngini = 0.111\nsamples = 17\nvalue = [1, 16]"] ;
85 -> 86 ;
87 [label="gini = 0.0\nsamples = 15\nvalue = [0, 15]"] ;
86 -> 87 ;
88 [label="x[6] <= 0.5\ngini = 0.5\nsamples = 2\nvalue = [1, 1]"] ;
86 -> 88 ;
89 [label="gini = 0.0\nsamples = 1\nvalue = [1, 0]"] ;
88 -> 89 ;
90 [label="gini = 0.0\nsamples = 1\nvalue = [0, 1]"] ;
88 -> 90 ;
91 [label="gini = 0.0\nsamples = 1\nvalue = [1, 0]"] ;
85 -> 91 ;
92 [label="x[5] <= 0.5\ngini = 0.444\nsamples = 3\nvalue = [2, 1]"] ;
84 -> 92 ;
93 [label="gini = 0.0\nsamples = 2\nvalue = [2, 0]"] ;
92 -> 93 ;
94 [label="gini = 0.0\nsamples = 1\nvalue = [0, 1]"] ;
92 -> 94 ;
95 [label="x[2] <= 0.5\ngini = 0.499\nsamples = 21\nvalue = [11, 10]"] ;
83 -> 95 ;
96 [label="x[18] <= 0.5\ngini = 0.469\nsamples = 16\nvalue = [10, 6]"] ;
95 -> 96 ;
97 [label="x[29] <= 0.5\ngini = 0.408\nsamples = 14\nvalue = [10, 4]"] ;
96 -> 97 ;
98 [label="x[8] <= 0.5\ngini = 0.355\nsamples = 13\nvalue = [10, 3]"] ;
97 -> 98 ;
99 [label="x[30] <= 0.5\ngini = 0.469\nsamples = 8\nvalue = [5, 3]"] ;
98 -> 99 ;
100 [label="x[1] <= 75.5\ngini = 0.408\nsamples = 7\nvalue = [5, 2]"] ;
99 -> 100 ;
101 [label="gini = 0.0\nsamples = 2\nvalue = [2, 0]"] ;
100 -> 101 ;
102 [label="x[1] <= 85.0\ngini = 0.48\nsamples = 5\nvalue = [3, 2]"] ;
100 -> 102 ;
103 [label="x[0] <= 21.5\ngini = 0.444\nsamples = 3\nvalue = [1, 2]"] ;
102 -> 103 ;
104 [label="gini = 0.0\nsamples = 1\nvalue = [1, 0]"] ;
103 -> 104 ;
105 [label="gini = 0.0\nsamples = 2\nvalue = [0, 2]"] ;
103 -> 105 ;
106 [label="gini = 0.0\nsamples = 2\nvalue = [2, 0]"] ;
102 -> 106 ;
107 [label="gini = 0.0\nsamples = 1\nvalue = [0, 1]"] ;
99 -> 107 ;
108 [label="gini = 0.0\nsamples = 5\nvalue = [5, 0]"] ;
98 -> 108 ;
109 [label="gini = 0.0\nsamples = 1\nvalue = [0, 1]"] ;
97 -> 109 ;
110 [label="gini = 0.0\nsamples = 2\nvalue = [0, 2]"] ;
96 -> 110 ;
111 [label="x[29] <= 0.5\ngini = 0.32\nsamples = 5\nvalue = [1, 4]"] ;
95 -> 111 ;
112 [label="gini = 0.0\nsamples = 3\nvalue = [0, 3]"] ;
111 -> 112 ;
113 [label="x[1] <= 91.0\ngini = 0.5\nsamples = 2\nvalue = [1, 1]"] ;
111 -> 113 ;
114 [label="gini = 0.0\nsamples = 1\nvalue = [1, 0]"] ;
113 -> 114 ;
115 [label="gini = 0.0\nsamples = 1\nvalue = [0, 1]"] ;
113 -> 115 ;
116 [label="x[2] <= 0.5\ngini = 0.473\nsamples = 13\nvalue = [8, 5]"] ;
72 -> 116 ;
117 [label="x[1] <= 77.5\ngini = 0.5\nsamples = 10\nvalue = [5, 5]"] ;
116 -> 117 ;
118 [label="x[1] <= 42.5\ngini = 0.444\nsamples = 6\nvalue = [4, 2]"] ;
117 -> 118 ;
119 [label="x[33] <= 0.5\ngini = 0.444\nsamples = 3\nvalue = [1, 2]"] ;
118 -> 119 ;
120 [label="x[4] <= 0.5\ngini = 0.5\nsamples = 2\nvalue = [1, 1]"] ;
119 -> 120 ;
121 [label="gini = 0.0\nsamples = 1\nvalue = [0, 1]"] ;
120 -> 121 ;
122 [label="gini = 0.0\nsamples = 1\nvalue = [1, 0]"] ;
120 -> 122 ;
123 [label="gini = 0.0\nsamples = 1\nvalue = [0, 1]"] ;
119 -> 123 ;
124 [label="gini = 0.0\nsamples = 3\nvalue = [3, 0]"] ;
118 -> 124 ;
125 [label="x[1] <= 93.5\ngini = 0.375\nsamples = 4\nvalue = [1, 3]"] ;
117 -> 125 ;
126 [label="gini = 0.0\nsamples = 3\nvalue = [0, 3]"] ;
125 -> 126 ;
127 [label="gini = 0.0\nsamples = 1\nvalue = [1, 0]"] ;
125 -> 127 ;
128 [label="gini = 0.0\nsamples = 3\nvalue = [3, 0]"] ;
116 -> 128 ;
129 [label="gini = 0.0\nsamples = 2\nvalue = [0, 2]"] ;
71 -> 129 ;
130 [label="gini = 0.0\nsamples = 3\nvalue = [0, 3]"] ;
70 -> 130 ;
131 [label="gini = 0.0\nsamples = 3\nvalue = [0, 3]"] ;
69 -> 131 ;
132 [label="x[8] <= 0.5\ngini = 0.198\nsamples = 9\nvalue = [1, 8]"] ;
68 -> 132 ;
133 [label="gini = 0.0\nsamples = 5\nvalue = [0, 5]"] ;
132 -> 133 ;
134 [label="x[1] <= 79.5\ngini = 0.375\nsamples = 4\nvalue = [1, 3]"] ;
132 -> 134 ;
135 [label="x[1] <= 67.5\ngini = 0.5\nsamples = 2\nvalue = [1, 1]"] ;
134 -> 135 ;
136 [label="gini = 0.0\nsamples = 1\nvalue = [0, 1]"] ;
135 -> 136 ;
137 [label="gini = 0.0\nsamples = 1\nvalue = [1, 0]"] ;
135 -> 137 ;
138 [label="gini = 0.0\nsamples = 2\nvalue = [0, 2]"] ;
134 -> 138 ;
139 [label="x[17] <= 0.5\ngini = 0.418\nsamples = 569\nvalue = [169, 400]"] ;
65 -> 139 ;
140 [label="x[0] <= 30.5\ngini = 0.41\nsamples = 541\nvalue = [156, 385]"] ;
139 -> 140 ;
141 [label="x[1] <= 99.5\ngini = 0.363\nsamples = 193\nvalue = [46, 147]"] ;
140 -> 141 ;
142 [label="x[3] <= 0.5\ngini = 0.355\nsamples = 191\nvalue = [44, 147]"] ;
141 -> 142 ;
143 [label="x[8] <= 0.5\ngini = 0.398\nsamples = 102\nvalue = [28, 74]"] ;
142 -> 143 ;
144 [label="x[1] <= 49.5\ngini = 0.436\nsamples = 78\nvalue = [25, 53]"] ;
143 -> 144 ;
145 [label="x[10] <= 0.5\ngini = 0.337\nsamples = 28\nvalue = [6, 22]"] ;
144 -> 145 ;
146 [label="x[13] <= 0.5\ngini = 0.26\nsamples = 26\nvalue = [4, 22]"] ;
145 -> 146 ;
147 [label="x[1] <= 30.5\ngini = 0.211\nsamples = 25\nvalue = [3, 22]"] ;
146 -> 147 ;
148 [label="x[0] <= 27.0\ngini = 0.49\nsamples = 7\nvalue = [3, 4]"] ;
147 -> 148 ;
149 [label="gini = 0.0\nsamples = 3\nvalue = [0, 3]"] ;
148 -> 149 ;
150 [label="x[30] <= 0.5\ngini = 0.375\nsamples = 4\nvalue = [3, 1]"] ;
148 -> 150 ;
151 [label="gini = 0.0\nsamples = 3\nvalue = [3, 0]"] ;
150 -> 151 ;
152 [label="gini = 0.0\nsamples = 1\nvalue = [0, 1]"] ;
150 -> 152 ;
153 [label="gini = 0.0\nsamples = 18\nvalue = [0, 18]"] ;
147 -> 153 ;
154 [label="gini = 0.0\nsamples = 1\nvalue = [1, 0]"] ;
146 -> 154 ;
155 [label="gini = 0.0\nsamples = 2\nvalue = [2, 0]"] ;
145 -> 155 ;
156 [label="x[1] <= 54.0\ngini = 0.471\nsamples = 50\nvalue = [19, 31]"] ;
144 -> 156 ;
157 [label="gini = 0.0\nsamples = 2\nvalue = [2, 0]"] ;
156 -> 157 ;
158 [label="x[34] <= 0.5\ngini = 0.457\nsamples = 48\nvalue = [17, 31]"] ;
156 -> 158 ;
159 [label="x[0] <= 26.5\ngini = 0.44\nsamples = 46\nvalue = [15, 31]"] ;
158 -> 159 ;
160 [label="x[5] <= 0.5\ngini = 0.495\nsamples = 20\nvalue = [9, 11]"] ;
159 -> 160 ;
161 [label="x[22] <= 0.5\ngini = 0.475\nsamples = 18\nvalue = [7, 11]"] ;
160 -> 161 ;
162 [label="x[0] <= 24.5\ngini = 0.457\nsamples = 17\nvalue = [6, 11]"] ;
161 -> 162 ;
163 [label="gini = 0.0\nsamples = 3\nvalue = [0, 3]"] ;
162 -> 163 ;
164 [label="x[1] <= 91.0\ngini = 0.49\nsamples = 14\nvalue = [6, 8]"] ;
162 -> 164 ;
165 [label="x[21] <= 0.5\ngini = 0.444\nsamples = 12\nvalue = [4, 8]"] ;
164 -> 165 ;
166 [label="x[1] <= 76.0\ngini = 0.397\nsamples = 11\nvalue = [3, 8]"] ;
165 -> 166 ;
167 [label="gini = 0.0\nsamples = 5\nvalue = [0, 5]"] ;
166 -> 167 ;
168 [label="x[20] <= 0.5\ngini = 0.5\nsamples = 6\nvalue = [3, 3]"] ;
166 -> 168 ;
169 [label="x[6] <= 0.5\ngini = 0.375\nsamples = 4\nvalue = [1, 3]"] ;
168 -> 169 ;
170 [label="gini = 0.0\nsamples = 1\nvalue = [1, 0]"] ;
169 -> 170 ;
171 [label="gini = 0.0\nsamples = 3\nvalue = [0, 3]"] ;
169 -> 171 ;
172 [label="gini = 0.0\nsamples = 2\nvalue = [2, 0]"] ;
168 -> 172 ;
173 [label="gini = 0.0\nsamples = 1\nvalue = [1, 0]"] ;
165 -> 173 ;
174 [label="gini = 0.0\nsamples = 2\nvalue = [2, 0]"] ;
164 -> 174 ;
175 [label="gini = 0.0\nsamples = 1\nvalue = [1, 0]"] ;
161 -> 175 ;
176 [label="gini = 0.0\nsamples = 2\nvalue = [2, 0]"] ;
160 -> 176 ;
177 [label="x[24] <= 0.5\ngini = 0.355\nsamples = 26\nvalue = [6, 20]"] ;
159 -> 177 ;
178 [label="x[1] <= 75.0\ngini = 0.32\nsamples = 25\nvalue = [5, 20]"] ;
177 -> 178 ;
179 [label="x[1] <= 68.0\ngini = 0.463\nsamples = 11\nvalue = [4, 7]"] ;
178 -> 179 ;
180 [label="gini = 0.0\nsamples = 5\nvalue = [0, 5]"] ;
179 -> 180 ;
181 [label="x[0] <= 28.5\ngini = 0.444\nsamples = 6\nvalue = [4, 2]"] ;
179 -> 181 ;
182 [label="gini = 0.0\nsamples = 3\nvalue = [3, 0]"] ;
181 -> 182 ;
183 [label="x[18] <= 0.5\ngini = 0.444\nsamples = 3\nvalue = [1, 2]"] ;
181 -> 183 ;
184 [label="gini = 0.0\nsamples = 2\nvalue = [0, 2]"] ;
183 -> 184 ;
185 [label="gini = 0.0\nsamples = 1\nvalue = [1, 0]"] ;
183 -> 185 ;
186 [label="x[14] <= 0.5\ngini = 0.133\nsamples = 14\nvalue = [1, 13]"] ;
178 -> 186 ;
187 [label="gini = 0.0\nsamples = 13\nvalue = [0, 13]"] ;
186 -> 187 ;
188 [label="gini = 0.0\nsamples = 1\nvalue = [1, 0]"] ;
186 -> 188 ;
189 [label="gini = 0.0\nsamples = 1\nvalue = [1, 0]"] ;
177 -> 189 ;
190 [label="gini = 0.0\nsamples = 2\nvalue = [2, 0]"] ;
158 -> 190 ;
191 [label="x[12] <= 0.5\ngini = 0.219\nsamples = 24\nvalue = [3, 21]"] ;
143 -> 191 ;
192 [label="x[18] <= 0.5\ngini = 0.159\nsamples = 23\nvalue = [2, 21]"] ;
191 -> 192 ;
193 [label="x[29] <= 0.5\ngini = 0.087\nsamples = 22\nvalue = [1, 21]"] ;
192 -> 193 ;
194 [label="gini = 0.0\nsamples = 21\nvalue = [0, 21]"] ;
193 -> 194 ;
195 [label="gini = 0.0\nsamples = 1\nvalue = [1, 0]"] ;
193 -> 195 ;
196 [label="gini = 0.0\nsamples = 1\nvalue = [1, 0]"] ;
192 -> 196 ;
197 [label="gini = 0.0\nsamples = 1\nvalue = [1, 0]"] ;
191 -> 197 ;
198 [label="x[1] <= 54.5\ngini = 0.295\nsamples = 89\nvalue = [16, 73]"] ;
142 -> 198 ;
199 [label="x[1] <= 51.5\ngini = 0.401\nsamples = 36\nvalue = [10, 26]"] ;
198 -> 199 ;
200 [label="x[32] <= 0.5\ngini = 0.305\nsamples = 32\nvalue = [6, 26]"] ;
199 -> 200 ;
201 [label="x[14] <= 0.5\ngini = 0.271\nsamples = 31\nvalue = [5, 26]"] ;
200 -> 201 ;
202 [label="x[24] <= 0.5\ngini = 0.238\nsamples = 29\nvalue = [4, 25]"] ;
201 -> 202 ;
203 [label="x[18] <= 0.5\ngini = 0.198\nsamples = 27\nvalue = [3, 24]"] ;
202 -> 203 ;
204 [label="x[20] <= 0.5\ngini = 0.147\nsamples = 25\nvalue = [2, 23]"] ;
203 -> 204 ;
205 [label="x[25] <= 0.5\ngini = 0.083\nsamples = 23\nvalue = [1, 22]"] ;
204 -> 205 ;
206 [label="gini = 0.0\nsamples = 20\nvalue = [0, 20]"] ;
205 -> 206 ;
207 [label="x[0] <= 28.0\ngini = 0.444\nsamples = 3\nvalue = [1, 2]"] ;
205 -> 207 ;
208 [label="gini = 0.0\nsamples = 1\nvalue = [1, 0]"] ;
207 -> 208 ;
209 [label="gini = 0.0\nsamples = 2\nvalue = [0, 2]"] ;
207 -> 209 ;
210 [label="x[8] <= 0.5\ngini = 0.5\nsamples = 2\nvalue = [1, 1]"] ;
204 -> 210 ;
211 [label="gini = 0.0\nsamples = 1\nvalue = [1, 0]"] ;
210 -> 211 ;
212 [label="gini = 0.0\nsamples = 1\nvalue = [0, 1]"] ;
210 -> 212 ;
213 [label="x[1] <= 39.5\ngini = 0.5\nsamples = 2\nvalue = [1, 1]"] ;
203 -> 213 ;
214 [label="gini = 0.0\nsamples = 1\nvalue = [1, 0]"] ;
213 -> 214 ;
215 [label="gini = 0.0\nsamples = 1\nvalue = [0, 1]"] ;
213 -> 215 ;
216 [label="x[8] <= 0.5\ngini = 0.5\nsamples = 2\nvalue = [1, 1]"] ;
202 -> 216 ;
217 [label="gini = 0.0\nsamples = 1\nvalue = [1, 0]"] ;
216 -> 217 ;
218 [label="gini = 0.0\nsamples = 1\nvalue = [0, 1]"] ;
216 -> 218 ;
219 [label="x[1] <= 42.0\ngini = 0.5\nsamples = 2\nvalue = [1, 1]"] ;
201 -> 219 ;
220 [label="gini = 0.0\nsamples = 1\nvalue = [0, 1]"] ;
219 -> 220 ;
221 [label="gini = 0.0\nsamples = 1\nvalue = [1, 0]"] ;
219 -> 221 ;
222 [label="gini = 0.0\nsamples = 1\nvalue = [1, 0]"] ;
200 -> 222 ;
223 [label="gini = 0.0\nsamples = 4\nvalue = [4, 0]"] ;
199 -> 223 ;
224 [label="x[1] <= 84.5\ngini = 0.201\nsamples = 53\nvalue = [6, 47]"] ;
198 -> 224 ;
225 [label="x[28] <= 0.5\ngini = 0.057\nsamples = 34\nvalue = [1, 33]"] ;
224 -> 225 ;
226 [label="gini = 0.0\nsamples = 32\nvalue = [0, 32]"] ;
225 -> 226 ;
227 [label="x[1] <= 65.5\ngini = 0.5\nsamples = 2\nvalue = [1, 1]"] ;
225 -> 227 ;
228 [label="gini = 0.0\nsamples = 1\nvalue = [1, 0]"] ;
227 -> 228 ;
229 [label="gini = 0.0\nsamples = 1\nvalue = [0, 1]"] ;
227 -> 229 ;
230 [label="x[34] <= 0.5\ngini = 0.388\nsamples = 19\nvalue = [5, 14]"] ;
224 -> 230 ;
231 [label="x[27] <= 0.5\ngini = 0.291\nsamples = 17\nvalue = [3, 14]"] ;
230 -> 231 ;
232 [label="x[33] <= 0.5\ngini = 0.219\nsamples = 16\nvalue = [2, 14]"] ;
231 -> 232 ;
233 [label="x[24] <= 0.5\ngini = 0.133\nsamples = 14\nvalue = [1, 13]"] ;
232 -> 233 ;
234 [label="gini = 0.0\nsamples = 12\nvalue = [0, 12]"] ;
233 -> 234 ;
235 [label="x[8] <= 0.5\ngini = 0.5\nsamples = 2\nvalue = [1, 1]"] ;
233 -> 235 ;
236 [label="gini = 0.0\nsamples = 1\nvalue = [0, 1]"] ;
235 -> 236 ;
237 [label="gini = 0.0\nsamples = 1\nvalue = [1, 0]"] ;
235 -> 237 ;
238 [label="x[0] <= 27.0\ngini = 0.5\nsamples = 2\nvalue = [1, 1]"] ;
232 -> 238 ;
239 [label="gini = 0.0\nsamples = 1\nvalue = [0, 1]"] ;
238 -> 239 ;
240 [label="gini = 0.0\nsamples = 1\nvalue = [1, 0]"] ;
238 -> 240 ;
241 [label="gini = 0.0\nsamples = 1\nvalue = [1, 0]"] ;
231 -> 241 ;
242 [label="gini = 0.0\nsamples = 2\nvalue = [2, 0]"] ;
230 -> 242 ;
243 [label="gini = 0.0\nsamples = 2\nvalue = [2, 0]"] ;
141 -> 243 ;
244 [label="x[10] <= 0.5\ngini = 0.432\nsamples = 348\nvalue = [110, 238]"] ;
140 -> 244 ;
245 [label="x[25] <= 0.5\ngini = 0.438\nsamples = 336\nvalue = [109, 227]"] ;
244 -> 245 ;
246 [label="x[1] <= 22.5\ngini = 0.432\nsamples = 323\nvalue = [102, 221]"] ;
245 -> 246 ;
247 [label="x[19] <= 0.5\ngini = 0.18\nsamples = 10\nvalue = [1, 9]"] ;
246 -> 247 ;
248 [label="gini = 0.0\nsamples = 9\nvalue = [0, 9]"] ;
247 -> 248 ;
249 [label="gini = 0.0\nsamples = 1\nvalue = [1, 0]"] ;
247 -> 249 ;
250 [label="x[0] <= 31.5\ngini = 0.437\nsamples = 313\nvalue = [101, 212]"] ;
246 -> 250 ;
251 [label="x[1] <= 77.0\ngini = 0.497\nsamples = 24\nvalue = [11, 13]"] ;
250 -> 251 ;
252 [label="x[1] <= 70.0\ngini = 0.48\nsamples = 15\nvalue = [9, 6]"] ;
251 -> 252 ;
253 [label="x[1] <= 50.5\ngini = 0.5\nsamples = 12\nvalue = [6, 6]"] ;
252 -> 253 ;
254 [label="x[18] <= 0.5\ngini = 0.408\nsamples = 7\nvalue = [5, 2]"] ;
253 -> 254 ;
255 [label="x[13] <= 0.5\ngini = 0.278\nsamples = 6\nvalue = [5, 1]"] ;
254 -> 255 ;
256 [label="gini = 0.0\nsamples = 5\nvalue = [5, 0]"] ;
255 -> 256 ;
257 [label="gini = 0.0\nsamples = 1\nvalue = [0, 1]"] ;
255 -> 257 ;
258 [label="gini = 0.0\nsamples = 1\nvalue = [0, 1]"] ;
254 -> 258 ;
259 [label="x[26] <= 0.5\ngini = 0.32\nsamples = 5\nvalue = [1, 4]"] ;
253 -> 259 ;
260 [label="gini = 0.0\nsamples = 4\nvalue = [0, 4]"] ;
259 -> 260 ;
261 [label="gini = 0.0\nsamples = 1\nvalue = [1, 0]"] ;
259 -> 261 ;
262 [label="gini = 0.0\nsamples = 3\nvalue = [3, 0]"] ;
252 -> 262 ;
263 [label="x[34] <= 0.5\ngini = 0.346\nsamples = 9\nvalue = [2, 7]"] ;
251 -> 263 ;
264 [label="x[23] <= 0.5\ngini = 0.219\nsamples = 8\nvalue = [1, 7]"] ;
263 -> 264 ;
265 [label="gini = 0.0\nsamples = 7\nvalue = [0, 7]"] ;
264 -> 265 ;
266 [label="gini = 0.0\nsamples = 1\nvalue = [1, 0]"] ;
264 -> 266 ;
267 [label="gini = 0.0\nsamples = 1\nvalue = [1, 0]"] ;
263 -> 267 ;
268 [label="x[22] <= 0.5\ngini = 0.429\nsamples = 289\nvalue = [90, 199]"] ;
250 -> 268 ;
269 [label="x[1] <= 92.5\ngini = 0.422\nsamples = 278\nvalue = [84, 194]"] ;
268 -> 269 ;
270 [label="x[1] <= 79.5\ngini = 0.433\nsamples = 249\nvalue = [79, 170]"] ;
269 -> 270 ;
271 [label="x[29] <= 0.5\ngini = 0.414\nsamples = 202\nvalue = [59, 143]"] ;
270 -> 271 ;
272 [label="x[0] <= 38.5\ngini = 0.399\nsamples = 189\nvalue = [52, 137]"] ;
271 -> 272 ;
273 [label="x[24] <= 0.5\ngini = 0.34\nsamples = 115\nvalue = [25, 90]"] ;
272 -> 273 ;
274 [label="x[27] <= 0.5\ngini = 0.332\nsamples = 114\nvalue = [24, 90]"] ;
273 -> 274 ;
275 [label="x[21] <= 0.5\ngini = 0.313\nsamples = 108\nvalue = [21, 87]"] ;
274 -> 275 ;
276 [label="x[1] <= 31.5\ngini = 0.337\nsamples = 98\nvalue = [21, 77]"] ;
275 -> 276 ;
277 [label="x[5] <= 0.5\ngini = 0.124\nsamples = 15\nvalue = [1, 14]"] ;
276 -> 277 ;
278 [label="gini = 0.0\nsamples = 14\nvalue = [0, 14]"] ;
277 -> 278 ;
279 [label="gini = 0.0\nsamples = 1\nvalue = [1, 0]"] ;
277 -> 279 ;
280 [label="x[1] <= 32.5\ngini = 0.366\nsamples = 83\nvalue = [20, 63]"] ;
276 -> 280 ;
281 [label="x[8] <= 0.5\ngini = 0.444\nsamples = 3\nvalue = [2, 1]"] ;
280 -> 281 ;
282 [label="gini = 0.0\nsamples = 1\nvalue = [0, 1]"] ;
281 -> 282 ;
283 [label="gini = 0.0\nsamples = 2\nvalue = [2, 0]"] ;
281 -> 283 ;
284 [label="x[0] <= 36.5\ngini = 0.349\nsamples = 80\nvalue = [18, 62]"] ;
280 -> 284 ;
285 [label="x[9] <= 0.5\ngini = 0.391\nsamples = 60\nvalue = [16, 44]"] ;
284 -> 285 ;
286 [label="x[33] <= 0.5\ngini = 0.346\nsamples = 54\nvalue = [12, 42]"] ;
285 -> 286 ;
287 [label="x[1] <= 70.5\ngini = 0.329\nsamples = 53\nvalue = [11, 42]"] ;
286 -> 287 ;
288 [label="x[1] <= 63.5\ngini = 0.381\nsamples = 43\nvalue = [11, 32]"] ;
287 -> 288 ;
289 [label="x[3] <= 0.5\ngini = 0.313\nsamples = 36\nvalue = [7, 29]"] ;
288 -> 289 ;
290 [label="x[13] <= 0.5\ngini = 0.172\nsamples = 21\nvalue = [2, 19]"] ;
289 -> 290 ;
291 [label="x[12] <= 0.5\ngini = 0.1\nsamples = 19\nvalue = [1, 18]"] ;
290 -> 291 ;
292 [label="gini = 0.0\nsamples = 17\nvalue = [0, 17]"] ;
291 -> 292 ;
293 [label="x[1] <= 55.5\ngini = 0.5\nsamples = 2\nvalue = [1, 1]"] ;
291 -> 293 ;
294 [label="gini = 0.0\nsamples = 1\nvalue = [0, 1]"] ;
293 -> 294 ;
295 [label="gini = 0.0\nsamples = 1\nvalue = [1, 0]"] ;
293 -> 295 ;
296 [label="x[0] <= 33.5\ngini = 0.5\nsamples = 2\nvalue = [1, 1]"] ;
290 -> 296 ;
297 [label="gini = 0.0\nsamples = 1\nvalue = [1, 0]"] ;
296 -> 297 ;
298 [label="gini = 0.0\nsamples = 1\nvalue = [0, 1]"] ;
296 -> 298 ;
299 [label="x[23] <= 0.5\ngini = 0.444\nsamples = 15\nvalue = [5, 10]"] ;
289 -> 299 ;
300 [label="x[26] <= 0.5\ngini = 0.408\nsamples = 14\nvalue = [4, 10]"] ;
299 -> 300 ;
301 [label="x[0] <= 34.5\ngini = 0.355\nsamples = 13\nvalue = [3, 10]"] ;
300 -> 301 ;
302 [label="x[15] <= 0.5\ngini = 0.198\nsamples = 9\nvalue = [1, 8]"] ;
301 -> 302 ;
303 [label="gini = 0.0\nsamples = 7\nvalue = [0, 7]"] ;
302 -> 303 ;
304 [label="x[0] <= 33.0\ngini = 0.5\nsamples = 2\nvalue = [1, 1]"] ;
302 -> 304 ;
305 [label="gini = 0.0\nsamples = 1\nvalue = [0, 1]"] ;
304 -> 305 ;
306 [label="gini = 0.0\nsamples = 1\nvalue = [1, 0]"] ;
304 -> 306 ;
307 [label="x[1] <= 47.5\ngini = 0.5\nsamples = 4\nvalue = [2, 2]"] ;
301 -> 307 ;
308 [label="gini = 0.0\nsamples = 2\nvalue = [0, 2]"] ;
307 -> 308 ;
309 [label="gini = 0.0\nsamples = 2\nvalue = [2, 0]"] ;
307 -> 309 ;
310 [label="gini = 0.0\nsamples = 1\nvalue = [1, 0]"] ;
300 -> 310 ;
311 [label="gini = 0.0\nsamples = 1\nvalue = [1, 0]"] ;
299 -> 311 ;
312 [label="x[26] <= 0.5\ngini = 0.49\nsamples = 7\nvalue = [4, 3]"] ;
288 -> 312 ;
313 [label="x[0] <= 33.5\ngini = 0.444\nsamples = 6\nvalue = [4, 2]"] ;
312 -> 313 ;
314 [label="gini = 0.0\nsamples = 3\nvalue = [3, 0]"] ;
313 -> 314 ;
315 [label="x[2] <= 0.5\ngini = 0.444\nsamples = 3\nvalue = [1, 2]"] ;
313 -> 315 ;
316 [label="gini = 0.0\nsamples = 2\nvalue = [0, 2]"] ;
315 -> 316 ;
317 [label="gini = 0.0\nsamples = 1\nvalue = [1, 0]"] ;
315 -> 317 ;
318 [label="gini = 0.0\nsamples = 1\nvalue = [0, 1]"] ;
312 -> 318 ;
319 [label="gini = 0.0\nsamples = 10\nvalue = [0, 10]"] ;
287 -> 319 ;
320 [label="gini = 0.0\nsamples = 1\nvalue = [1, 0]"] ;
286 -> 320 ;
321 [label="x[2] <= 0.5\ngini = 0.444\nsamples = 6\nvalue = [4, 2]"] ;
285 -> 321 ;
322 [label="gini = 0.0\nsamples = 3\nvalue = [3, 0]"] ;
321 -> 322 ;
323 [label="x[1] <= 62.5\ngini = 0.444\nsamples = 3\nvalue = [1, 2]"] ;
321 -> 323 ;
324 [label="gini = 0.0\nsamples = 2\nvalue = [0, 2]"] ;
323 -> 324 ;
325 [label="gini = 0.0\nsamples = 1\nvalue = [1, 0]"] ;
323 -> 325 ;
326 [label="x[1] <= 40.5\ngini = 0.18\nsamples = 20\nvalue = [2, 18]"] ;
284 -> 326 ;
327 [label="gini = 0.0\nsamples = 1\nvalue = [1, 0]"] ;
326 -> 327 ;
328 [label="x[1] <= 45.5\ngini = 0.1\nsamples = 19\nvalue = [1, 18]"] ;
326 -> 328 ;
329 [label="x[1] <= 44.5\ngini = 0.444\nsamples = 3\nvalue = [1, 2]"] ;
328 -> 329 ;
330 [label="gini = 0.0\nsamples = 2\nvalue = [0, 2]"] ;
329 -> 330 ;
331 [label="gini = 0.0\nsamples = 1\nvalue = [1, 0]"] ;
329 -> 331 ;
332 [label="gini = 0.0\nsamples = 16\nvalue = [0, 16]"] ;
328 -> 332 ;
333 [label="gini = 0.0\nsamples = 10\nvalue = [0, 10]"] ;
275 -> 333 ;
334 [label="x[6] <= 0.5\ngini = 0.5\nsamples = 6\nvalue = [3, 3]"] ;
274 -> 334 ;
335 [label="x[3] <= 0.5\ngini = 0.375\nsamples = 4\nvalue = [1, 3]"] ;
334 -> 335 ;
336 [label="gini = 0.0\nsamples = 1\nvalue = [1, 0]"] ;
335 -> 336 ;
337 [label="gini = 0.0\nsamples = 3\nvalue = [0, 3]"] ;
335 -> 337 ;
338 [label="gini = 0.0\nsamples = 2\nvalue = [2, 0]"] ;
334 -> 338 ;
339 [label="gini = 0.0\nsamples = 1\nvalue = [1, 0]"] ;
273 -> 339 ;
340 [label="x[1] <= 28.5\ngini = 0.463\nsamples = 74\nvalue = [27, 47]"] ;
272 -> 340 ;
341 [label="x[28] <= 0.5\ngini = 0.48\nsamples = 10\nvalue = [6, 4]"] ;
340 -> 341 ;
342 [label="x[1] <= 25.0\ngini = 0.375\nsamples = 8\nvalue = [6, 2]"] ;
341 -> 342 ;
343 [label="x[1] <= 23.5\ngini = 0.48\nsamples = 5\nvalue = [3, 2]"] ;
342 -> 343 ;
344 [label="gini = 0.0\nsamples = 2\nvalue = [2, 0]"] ;
343 -> 344 ;
345 [label="x[21] <= 0.5\ngini = 0.444\nsamples = 3\nvalue = [1, 2]"] ;
343 -> 345 ;
346 [label="gini = 0.0\nsamples = 2\nvalue = [0, 2]"] ;
345 -> 346 ;
347 [label="gini = 0.0\nsamples = 1\nvalue = [1, 0]"] ;
345 -> 347 ;
348 [label="gini = 0.0\nsamples = 3\nvalue = [3, 0]"] ;
342 -> 348 ;
349 [label="gini = 0.0\nsamples = 2\nvalue = [0, 2]"] ;
341 -> 349 ;
350 [label="x[3] <= 0.5\ngini = 0.441\nsamples = 64\nvalue = [21, 43]"] ;
340 -> 350 ;
351 [label="x[18] <= 0.5\ngini = 0.4\nsamples = 47\nvalue = [13, 34]"] ;
350 -> 351 ;
352 [label="x[1] <= 74.5\ngini = 0.386\nsamples = 46\nvalue = [12, 34]"] ;
351 -> 352 ;
353 [label="x[24] <= 0.5\ngini = 0.42\nsamples = 40\nvalue = [12, 28]"] ;
352 -> 353 ;
354 [label="x[9] <= 0.5\ngini = 0.382\nsamples = 35\nvalue = [9, 26]"] ;
353 -> 354 ;
355 [label="x[19] <= 0.5\ngini = 0.428\nsamples = 29\nvalue = [9, 20]"] ;
354 -> 355 ;
356 [label="x[14] <= 0.5\ngini = 0.408\nsamples = 28\nvalue = [8, 20]"] ;
355 -> 356 ;
357 [label="x[1] <= 69.0\ngini = 0.384\nsamples = 27\nvalue = [7, 20]"] ;
356 -> 357 ;
358 [label="x[28] <= 0.5\ngini = 0.33\nsamples = 24\nvalue = [5, 19]"] ;
357 -> 358 ;
359 [label="x[1] <= 34.5\ngini = 0.245\nsamples = 21\nvalue = [3, 18]"] ;
358 -> 359 ;
360 [label="x[1] <= 32.0\ngini = 0.48\nsamples = 5\nvalue = [2, 3]"] ;
359 -> 360 ;
361 [label="gini = 0.0\nsamples = 3\nvalue = [0, 3]"] ;
360 -> 361 ;
362 [label="gini = 0.0\nsamples = 2\nvalue = [2, 0]"] ;
360 -> 362 ;
363 [label="x[26] <= 0.5\ngini = 0.117\nsamples = 16\nvalue = [1, 15]"] ;
359 -> 363 ;
364 [label="gini = 0.0\nsamples = 12\nvalue = [0, 12]"] ;
363 -> 364 ;
365 [label="x[8] <= 0.5\ngini = 0.375\nsamples = 4\nvalue = [1, 3]"] ;
363 -> 365 ;
366 [label="gini = 0.0\nsamples = 3\nvalue = [0, 3]"] ;
365 -> 366 ;
367 [label="gini = 0.0\nsamples = 1\nvalue = [1, 0]"] ;
365 -> 367 ;
368 [label="x[1] <= 64.0\ngini = 0.444\nsamples = 3\nvalue = [2, 1]"] ;
358 -> 368 ;
369 [label="gini = 0.0\nsamples = 2\nvalue = [2, 0]"] ;
368 -> 369 ;
370 [label="gini = 0.0\nsamples = 1\nvalue = [0, 1]"] ;
368 -> 370 ;
371 [label="x[30] <= 0.5\ngini = 0.444\nsamples = 3\nvalue = [2, 1]"] ;
357 -> 371 ;
372 [label="gini = 0.0\nsamples = 2\nvalue = [2, 0]"] ;
371 -> 372 ;
373 [label="gini = 0.0\nsamples = 1\nvalue = [0, 1]"] ;
371 -> 373 ;
374 [label="gini = 0.0\nsamples = 1\nvalue = [1, 0]"] ;
356 -> 374 ;
375 [label="gini = 0.0\nsamples = 1\nvalue = [1, 0]"] ;
355 -> 375 ;
376 [label="gini = 0.0\nsamples = 6\nvalue = [0, 6]"] ;
354 -> 376 ;
377 [label="x[0] <= 40.5\ngini = 0.48\nsamples = 5\nvalue = [3, 2]"] ;
353 -> 377 ;
378 [label="gini = 0.0\nsamples = 2\nvalue = [2, 0]"] ;
377 -> 378 ;
379 [label="x[6] <= 0.5\ngini = 0.444\nsamples = 3\nvalue = [1, 2]"] ;
377 -> 379 ;
380 [label="gini = 0.0\nsamples = 1\nvalue = [1, 0]"] ;
379 -> 380 ;
381 [label="gini = 0.0\nsamples = 2\nvalue = [0, 2]"] ;
379 -> 381 ;
382 [label="gini = 0.0\nsamples = 6\nvalue = [0, 6]"] ;
352 -> 382 ;
383 [label="gini = 0.0\nsamples = 1\nvalue = [1, 0]"] ;
351 -> 383 ;
384 [label="x[15] <= 0.5\ngini = 0.498\nsamples = 17\nvalue = [8, 9]"] ;
350 -> 384 ;
385 [label="x[9] <= 0.5\ngini = 0.498\nsamples = 15\nvalue = [8, 7]"] ;
384 -> 385 ;
386 [label="x[1] <= 53.0\ngini = 0.48\nsamples = 10\nvalue = [4, 6]"] ;
385 -> 386 ;
387 [label="x[1] <= 37.5\ngini = 0.48\nsamples = 5\nvalue = [3, 2]"] ;
386 -> 387 ;
388 [label="gini = 0.0\nsamples = 1\nvalue = [0, 1]"] ;
387 -> 388 ;
389 [label="x[12] <= 0.5\ngini = 0.375\nsamples = 4\nvalue = [3, 1]"] ;
387 -> 389 ;
390 [label="gini = 0.0\nsamples = 2\nvalue = [2, 0]"] ;
389 -> 390 ;
391 [label="x[1] <= 49.5\ngini = 0.5\nsamples = 2\nvalue = [1, 1]"] ;
389 -> 391 ;
392 [label="gini = 0.0\nsamples = 1\nvalue = [0, 1]"] ;
391 -> 392 ;
393 [label="gini = 0.0\nsamples = 1\nvalue = [1, 0]"] ;
391 -> 393 ;
394 [label="x[27] <= 0.5\ngini = 0.32\nsamples = 5\nvalue = [1, 4]"] ;
386 -> 394 ;
395 [label="gini = 0.0\nsamples = 4\nvalue = [0, 4]"] ;
394 -> 395 ;
396 [label="gini = 0.0\nsamples = 1\nvalue = [1, 0]"] ;
394 -> 396 ;
397 [label="x[30] <= 0.5\ngini = 0.32\nsamples = 5\nvalue = [4, 1]"] ;
385 -> 397 ;
398 [label="gini = 0.0\nsamples = 4\nvalue = [4, 0]"] ;
397 -> 398 ;
399 [label="gini = 0.0\nsamples = 1\nvalue = [0, 1]"] ;
397 -> 399 ;
400 [label="gini = 0.0\nsamples = 2\nvalue = [0, 2]"] ;
384 -> 400 ;
401 [label="x[0] <= 38.5\ngini = 0.497\nsamples = 13\nvalue = [7, 6]"] ;
271 -> 401 ;
402 [label="x[3] <= 0.5\ngini = 0.375\nsamples = 8\nvalue = [6, 2]"] ;
401 -> 402 ;
403 [label="gini = 0.0\nsamples = 3\nvalue = [3, 0]"] ;
402 -> 403 ;
404 [label="x[8] <= 0.5\ngini = 0.48\nsamples = 5\nvalue = [3, 2]"] ;
402 -> 404 ;
405 [label="x[1] <= 30.5\ngini = 0.5\nsamples = 4\nvalue = [2, 2]"] ;
404 -> 405 ;
406 [label="gini = 0.0\nsamples = 1\nvalue = [1, 0]"] ;
405 -> 406 ;
407 [label="x[1] <= 64.0\ngini = 0.444\nsamples = 3\nvalue = [1, 2]"] ;
405 -> 407 ;
408 [label="gini = 0.0\nsamples = 2\nvalue = [0, 2]"] ;
407 -> 408 ;
409 [label="gini = 0.0\nsamples = 1\nvalue = [1, 0]"] ;
407 -> 409 ;
410 [label="gini = 0.0\nsamples = 1\nvalue = [1, 0]"] ;
404 -> 410 ;
411 [label="x[4] <= 0.5\ngini = 0.32\nsamples = 5\nvalue = [1, 4]"] ;
401 -> 411 ;
412 [label="gini = 0.0\nsamples = 4\nvalue = [0, 4]"] ;
411 -> 412 ;
413 [label="gini = 0.0\nsamples = 1\nvalue = [1, 0]"] ;
411 -> 413 ;
414 [label="x[13] <= 0.5\ngini = 0.489\nsamples = 47\nvalue = [20, 27]"] ;
270 -> 414 ;
415 [label="x[0] <= 36.5\ngini = 0.474\nsamples = 44\nvalue = [17, 27]"] ;
414 -> 415 ;
416 [label="x[8] <= 0.5\ngini = 0.498\nsamples = 17\nvalue = [9, 8]"] ;
415 -> 416 ;
417 [label="x[1] <= 89.5\ngini = 0.42\nsamples = 10\nvalue = [7, 3]"] ;
416 -> 417 ;
418 [label="gini = 0.0\nsamples = 6\nvalue = [6, 0]"] ;
417 -> 418 ;
419 [label="x[26] <= 0.5\ngini = 0.375\nsamples = 4\nvalue = [1, 3]"] ;
417 -> 419 ;
420 [label="gini = 0.0\nsamples = 3\nvalue = [0, 3]"] ;
419 -> 420 ;
421 [label="gini = 0.0\nsamples = 1\nvalue = [1, 0]"] ;
419 -> 421 ;
422 [label="x[1] <= 88.5\ngini = 0.408\nsamples = 7\nvalue = [2, 5]"] ;
416 -> 422 ;
423 [label="gini = 0.0\nsamples = 4\nvalue = [0, 4]"] ;
422 -> 423 ;
424 [label="x[1] <= 90.5\ngini = 0.444\nsamples = 3\nvalue = [2, 1]"] ;
422 -> 424 ;
425 [label="gini = 0.0\nsamples = 2\nvalue = [2, 0]"] ;
424 -> 425 ;
426 [label="gini = 0.0\nsamples = 1\nvalue = [0, 1]"] ;
424 -> 426 ;
427 [label="x[27] <= 0.5\ngini = 0.417\nsamples = 27\nvalue = [8, 19]"] ;
415 -> 427 ;
428 [label="x[32] <= 0.5\ngini = 0.365\nsamples = 25\nvalue = [6, 19]"] ;
427 -> 428 ;
429 [label="x[23] <= 0.5\ngini = 0.298\nsamples = 22\nvalue = [4, 18]"] ;
428 -> 429 ;
430 [label="x[1] <= 80.5\ngini = 0.245\nsamples = 21\nvalue = [3, 18]"] ;
429 -> 430 ;
431 [label="x[3] <= 0.5\ngini = 0.5\nsamples = 2\nvalue = [1, 1]"] ;
430 -> 431 ;
432 [label="gini = 0.0\nsamples = 1\nvalue = [1, 0]"] ;
431 -> 432 ;
433 [label="gini = 0.0\nsamples = 1\nvalue = [0, 1]"] ;
431 -> 433 ;
434 [label="x[14] <= 0.5\ngini = 0.188\nsamples = 19\nvalue = [2, 17]"] ;
430 -> 434 ;
435 [label="x[29] <= 0.5\ngini = 0.111\nsamples = 17\nvalue = [1, 16]"] ;
434 -> 435 ;
436 [label="gini = 0.0\nsamples = 15\nvalue = [0, 15]"] ;
435 -> 436 ;
437 [label="x[3] <= 0.5\ngini = 0.5\nsamples = 2\nvalue = [1, 1]"] ;
435 -> 437 ;
438 [label="gini = 0.0\nsamples = 1\nvalue = [1, 0]"] ;
437 -> 438 ;
439 [label="gini = 0.0\nsamples = 1\nvalue = [0, 1]"] ;
437 -> 439 ;
440 [label="x[8] <= 0.5\ngini = 0.5\nsamples = 2\nvalue = [1, 1]"] ;
434 -> 440 ;
441 [label="gini = 0.0\nsamples = 1\nvalue = [1, 0]"] ;
440 -> 441 ;
442 [label="gini = 0.0\nsamples = 1\nvalue = [0, 1]"] ;
440 -> 442 ;
443 [label="gini = 0.0\nsamples = 1\nvalue = [1, 0]"] ;
429 -> 443 ;
444 [label="x[1] <= 81.0\ngini = 0.444\nsamples = 3\nvalue = [2, 1]"] ;
428 -> 444 ;
445 [label="gini = 0.0\nsamples = 1\nvalue = [0, 1]"] ;
444 -> 445 ;
446 [label="gini = 0.0\nsamples = 2\nvalue = [2, 0]"] ;
444 -> 446 ;
447 [label="gini = 0.0\nsamples = 2\nvalue = [2, 0]"] ;
427 -> 447 ;
448 [label="gini = 0.0\nsamples = 3\nvalue = [3, 0]"] ;
414 -> 448 ;
449 [label="x[5] <= 0.5\ngini = 0.285\nsamples = 29\nvalue = [5, 24]"] ;
269 -> 449 ;
450 [label="x[12] <= 0.5\ngini = 0.204\nsamples = 26\nvalue = [3, 23]"] ;
449 -> 450 ;
451 [label="x[15] <= 0.5\ngini = 0.147\nsamples = 25\nvalue = [2, 23]"] ;
450 -> 451 ;
452 [label="x[9] <= 0.5\ngini = 0.083\nsamples = 23\nvalue = [1, 22]"] ;
451 -> 452 ;
453 [label="gini = 0.0\nsamples = 18\nvalue = [0, 18]"] ;
452 -> 453 ;
454 [label="x[1] <= 97.0\ngini = 0.32\nsamples = 5\nvalue = [1, 4]"] ;
452 -> 454 ;
455 [label="gini = 0.0\nsamples = 3\nvalue = [0, 3]"] ;
454 -> 455 ;
456 [label="x[2] <= 0.5\ngini = 0.5\nsamples = 2\nvalue = [1, 1]"] ;
454 -> 456 ;
457 [label="gini = 0.0\nsamples = 1\nvalue = [0, 1]"] ;
456 -> 457 ;
458 [label="gini = 0.0\nsamples = 1\nvalue = [1, 0]"] ;
456 -> 458 ;
459 [label="x[1] <= 94.5\ngini = 0.5\nsamples = 2\nvalue = [1, 1]"] ;
451 -> 459 ;
460 [label="gini = 0.0\nsamples = 1\nvalue = [1, 0]"] ;
459 -> 460 ;
461 [label="gini = 0.0\nsamples = 1\nvalue = [0, 1]"] ;
459 -> 461 ;
462 [label="gini = 0.0\nsamples = 1\nvalue = [1, 0]"] ;
450 -> 462 ;
463 [label="x[34] <= 0.5\ngini = 0.444\nsamples = 3\nvalue = [2, 1]"] ;
449 -> 463 ;
464 [label="gini = 0.0\nsamples = 2\nvalue = [2, 0]"] ;
463 -> 464 ;
465 [label="gini = 0.0\nsamples = 1\nvalue = [0, 1]"] ;
463 -> 465 ;
466 [label="x[0] <= 36.0\ngini = 0.496\nsamples = 11\nvalue = [6, 5]"] ;
268 -> 466 ;
467 [label="gini = 0.0\nsamples = 3\nvalue = [0, 3]"] ;
466 -> 467 ;
468 [label="x[1] <= 58.0\ngini = 0.375\nsamples = 8\nvalue = [6, 2]"] ;
466 -> 468 ;
469 [label="gini = 0.0\nsamples = 4\nvalue = [4, 0]"] ;
468 -> 469 ;
470 [label="x[1] <= 86.5\ngini = 0.5\nsamples = 4\nvalue = [2, 2]"] ;
468 -> 470 ;
471 [label="gini = 0.0\nsamples = 2\nvalue = [0, 2]"] ;
470 -> 471 ;
472 [label="gini = 0.0\nsamples = 2\nvalue = [2, 0]"] ;
470 -> 472 ;
473 [label="x[0] <= 38.5\ngini = 0.497\nsamples = 13\nvalue = [7, 6]"] ;
245 -> 473 ;
474 [label="x[0] <= 33.0\ngini = 0.375\nsamples = 8\nvalue = [6, 2]"] ;
473 -> 474 ;
475 [label="gini = 0.0\nsamples = 2\nvalue = [0, 2]"] ;
474 -> 475 ;
476 [label="gini = 0.0\nsamples = 6\nvalue = [6, 0]"] ;
474 -> 476 ;
477 [label="x[1] <= 51.0\ngini = 0.32\nsamples = 5\nvalue = [1, 4]"] ;
473 -> 477 ;
478 [label="gini = 0.0\nsamples = 3\nvalue = [0, 3]"] ;
477 -> 478 ;
479 [label="x[3] <= 0.5\ngini = 0.5\nsamples = 2\nvalue = [1, 1]"] ;
477 -> 479 ;
480 [label="gini = 0.0\nsamples = 1\nvalue = [0, 1]"] ;
479 -> 480 ;
481 [label="gini = 0.0\nsamples = 1\nvalue = [1, 0]"] ;
479 -> 481 ;
482 [label="x[9] <= 0.5\ngini = 0.153\nsamples = 12\nvalue = [1, 11]"] ;
244 -> 482 ;
483 [label="gini = 0.0\nsamples = 8\nvalue = [0, 8]"] ;
482 -> 483 ;
484 [label="x[3] <= 0.5\ngini = 0.375\nsamples = 4\nvalue = [1, 3]"] ;
482 -> 484 ;
485 [label="gini = 0.0\nsamples = 3\nvalue = [0, 3]"] ;
484 -> 485 ;
486 [label="gini = 0.0\nsamples = 1\nvalue = [1, 0]"] ;
484 -> 486 ;
487 [label="x[4] <= 0.5\ngini = 0.497\nsamples = 28\nvalue = [13, 15]"] ;
139 -> 487 ;
488 [label="x[9] <= 0.5\ngini = 0.42\nsamples = 20\nvalue = [6, 14]"] ;
487 -> 488 ;
489 [label="x[3] <= 0.5\ngini = 0.346\nsamples = 18\nvalue = [4, 14]"] ;
488 -> 489 ;
490 [label="x[0] <= 37.5\ngini = 0.153\nsamples = 12\nvalue = [1, 11]"] ;
489 -> 490 ;
491 [label="gini = 0.0\nsamples = 8\nvalue = [0, 8]"] ;
490 -> 491 ;
492 [label="x[0] <= 39.0\ngini = 0.375\nsamples = 4\nvalue = [1, 3]"] ;
490 -> 492 ;
493 [label="gini = 0.0\nsamples = 1\nvalue = [1, 0]"] ;
492 -> 493 ;
494 [label="gini = 0.0\nsamples = 3\nvalue = [0, 3]"] ;
492 -> 494 ;
495 [label="x[0] <= 26.5\ngini = 0.5\nsamples = 6\nvalue = [3, 3]"] ;
489 -> 495 ;
496 [label="gini = 0.0\nsamples = 2\nvalue = [2, 0]"] ;
495 -> 496 ;
497 [label="x[1] <= 69.0\ngini = 0.375\nsamples = 4\nvalue = [1, 3]"] ;
495 -> 497 ;
498 [label="gini = 0.0\nsamples = 2\nvalue = [0, 2]"] ;
497 -> 498 ;
499 [label="x[0] <= 32.5\ngini = 0.5\nsamples = 2\nvalue = [1, 1]"] ;
497 -> 499 ;
500 [label="gini = 0.0\nsamples = 1\nvalue = [1, 0]"] ;
499 -> 500 ;
501 [label="gini = 0.0\nsamples = 1\nvalue = [0, 1]"] ;
499 -> 501 ;
502 [label="gini = 0.0\nsamples = 2\nvalue = [2, 0]"] ;
488 -> 502 ;
503 [label="x[0] <= 36.0\ngini = 0.219\nsamples = 8\nvalue = [7, 1]"] ;
487 -> 503 ;
504 [label="gini = 0.0\nsamples = 6\nvalue = [6, 0]"] ;
503 -> 504 ;
505 [label="x[6] <= 0.5\ngini = 0.5\nsamples = 2\nvalue = [1, 1]"] ;
503 -> 505 ;
506 [label="gini = 0.0\nsamples = 1\nvalue = [1, 0]"] ;
505 -> 506 ;
507 [label="gini = 0.0\nsamples = 1\nvalue = [0, 1]"] ;
505 -> 507 ;
508 [label="x[3] <= 0.5\ngini = 0.252\nsamples = 27\nvalue = [4, 23]"] ;
64 -> 508 ;
509 [label="gini = 0.0\nsamples = 11\nvalue = [0, 11]"] ;
508 -> 509 ;
510 [label="x[1] <= 64.5\ngini = 0.375\nsamples = 16\nvalue = [4, 12]"] ;
508 -> 510 ;
511 [label="x[1] <= 36.5\ngini = 0.48\nsamples = 10\nvalue = [4, 6]"] ;
510 -> 511 ;
512 [label="gini = 0.0\nsamples = 4\nvalue = [0, 4]"] ;
511 -> 512 ;
513 [label="x[6] <= 0.5\ngini = 0.444\nsamples = 6\nvalue = [4, 2]"] ;
511 -> 513 ;
514 [label="x[1] <= 45.5\ngini = 0.444\nsamples = 3\nvalue = [1, 2]"] ;
513 -> 514 ;
515 [label="gini = 0.0\nsamples = 1\nvalue = [1, 0]"] ;
514 -> 515 ;
516 [label="gini = 0.0\nsamples = 2\nvalue = [0, 2]"] ;
514 -> 516 ;
517 [label="gini = 0.0\nsamples = 3\nvalue = [3, 0]"] ;
513 -> 517 ;
518 [label="gini = 0.0\nsamples = 6\nvalue = [0, 6]"] ;
510 -> 518 ;
519 [label="x[3] <= 0.5\ngini = 0.264\nsamples = 32\nvalue = [5, 27]"] ;
3 -> 519 ;
520 [label="gini = 0.0\nsamples = 16\nvalue = [0, 16]"] ;
519 -> 520 ;
521 [label="x[0] <= 25.5\ngini = 0.43\nsamples = 16\nvalue = [5, 11]"] ;
519 -> 521 ;
522 [label="gini = 0.0\nsamples = 5\nvalue = [0, 5]"] ;
521 -> 522 ;
523 [label="x[1] <= 98.5\ngini = 0.496\nsamples = 11\nvalue = [5, 6]"] ;
521 -> 523 ;
524 [label="x[1] <= 75.0\ngini = 0.48\nsamples = 10\nvalue = [4, 6]"] ;
523 -> 524 ;
525 [label="x[9] <= 0.5\ngini = 0.5\nsamples = 8\nvalue = [4, 4]"] ;
524 -> 525 ;
526 [label="x[0] <= 31.5\ngini = 0.49\nsamples = 7\nvalue = [4, 3]"] ;
525 -> 526 ;
527 [label="gini = 0.0\nsamples = 2\nvalue = [2, 0]"] ;
526 -> 527 ;
528 [label="x[1] <= 42.0\ngini = 0.48\nsamples = 5\nvalue = [2, 3]"] ;
526 -> 528 ;
529 [label="gini = 0.0\nsamples = 2\nvalue = [0, 2]"] ;
528 -> 529 ;
530 [label="x[1] <= 47.5\ngini = 0.444\nsamples = 3\nvalue = [2, 1]"] ;
528 -> 530 ;
531 [label="gini = 0.0\nsamples = 2\nvalue = [2, 0]"] ;
530 -> 531 ;
532 [label="gini = 0.0\nsamples = 1\nvalue = [0, 1]"] ;
530 -> 532 ;
533 [label="gini = 0.0\nsamples = 1\nvalue = [0, 1]"] ;
525 -> 533 ;
534 [label="gini = 0.0\nsamples = 2\nvalue = [0, 2]"] ;
524 -> 534 ;
535 [label="gini = 0.0\nsamples = 1\nvalue = [1, 0]"] ;
523 -> 535 ;
536 [label="x[31] <= 0.5\ngini = 0.456\nsamples = 669\nvalue = [235, 434]"] ;
2 -> 536 ;
537 [label="x[21] <= 0.5\ngini = 0.46\nsamples = 650\nvalue = [233, 417]"] ;
536 -> 537 ;
538 [label="x[16] <= 0.5\ngini = 0.455\nsamples = 615\nvalue = [215, 400]"] ;
537 -> 538 ;
539 [label="x[0] <= 21.5\ngini = 0.45\nsamples = 586\nvalue = [200, 386]"] ;
538 -> 539 ;
540 [label="x[34] <= 0.5\ngini = 0.372\nsamples = 81\nvalue = [20, 61]"] ;
539 -> 540 ;
541 [label="x[1] <= 96.5\ngini = 0.332\nsamples = 76\nvalue = [16, 60]"] ;
540 -> 541 ;
542 [label="x[1] <= 62.5\ngini = 0.31\nsamples = 73\nvalue = [14, 59]"] ;
541 -> 542 ;
543 [label="x[1] <= 37.0\ngini = 0.418\nsamples = 37\nvalue = [11, 26]"] ;
542 -> 543 ;
544 [label="x[10] <= 0.5\ngini = 0.245\nsamples = 14\nvalue = [2, 12]"] ;
543 -> 544 ;
545 [label="x[18] <= 0.5\ngini = 0.142\nsamples = 13\nvalue = [1, 12]"] ;
544 -> 545 ;
546 [label="gini = 0.0\nsamples = 11\nvalue = [0, 11]"] ;
545 -> 546 ;
547 [label="x[3] <= 0.5\ngini = 0.5\nsamples = 2\nvalue = [1, 1]"] ;
545 -> 547 ;
548 [label="gini = 0.0\nsamples = 1\nvalue = [0, 1]"] ;
547 -> 548 ;
549 [label="gini = 0.0\nsamples = 1\nvalue = [1, 0]"] ;
547 -> 549 ;
550 [label="gini = 0.0\nsamples = 1\nvalue = [1, 0]"] ;
544 -> 550 ;
551 [label="x[1] <= 43.0\ngini = 0.476\nsamples = 23\nvalue = [9, 14]"] ;
543 -> 551 ;
552 [label="gini = 0.0\nsamples = 4\nvalue = [4, 0]"] ;
551 -> 552 ;
553 [label="x[1] <= 55.5\ngini = 0.388\nsamples = 19\nvalue = [5, 14]"] ;
551 -> 553 ;
554 [label="x[0] <= 18.5\ngini = 0.165\nsamples = 11\nvalue = [1, 10]"] ;
553 -> 554 ;
555 [label="x[5] <= 0.5\ngini = 0.5\nsamples = 2\nvalue = [1, 1]"] ;
554 -> 555 ;
556 [label="gini = 0.0\nsamples = 1\nvalue = [1, 0]"] ;
555 -> 556 ;
557 [label="gini = 0.0\nsamples = 1\nvalue = [0, 1]"] ;
555 -> 557 ;
558 [label="gini = 0.0\nsamples = 9\nvalue = [0, 9]"] ;
554 -> 558 ;
559 [label="x[3] <= 0.5\ngini = 0.5\nsamples = 8\nvalue = [4, 4]"] ;
553 -> 559 ;
560 [label="x[0] <= 18.5\ngini = 0.375\nsamples = 4\nvalue = [3, 1]"] ;
559 -> 560 ;
561 [label="gini = 0.0\nsamples = 1\nvalue = [0, 1]"] ;
560 -> 561 ;
562 [label="gini = 0.0\nsamples = 3\nvalue = [3, 0]"] ;
560 -> 562 ;
563 [label="x[30] <= 0.5\ngini = 0.375\nsamples = 4\nvalue = [1, 3]"] ;
559 -> 563 ;
564 [label="gini = 0.0\nsamples = 3\nvalue = [0, 3]"] ;
563 -> 564 ;
565 [label="gini = 0.0\nsamples = 1\nvalue = [1, 0]"] ;
563 -> 565 ;
566 [label="x[20] <= 0.5\ngini = 0.153\nsamples = 36\nvalue = [3, 33]"] ;
542 -> 566 ;
567 [label="x[28] <= 0.5\ngini = 0.114\nsamples = 33\nvalue = [2, 31]"] ;
566 -> 567 ;
568 [label="x[30] <= 0.5\ngini = 0.064\nsamples = 30\nvalue = [1, 29]"] ;
567 -> 568 ;
569 [label="gini = 0.0\nsamples = 26\nvalue = [0, 26]"] ;
568 -> 569 ;
570 [label="x[0] <= 19.5\ngini = 0.375\nsamples = 4\nvalue = [1, 3]"] ;
568 -> 570 ;
571 [label="gini = 0.0\nsamples = 1\nvalue = [1, 0]"] ;
570 -> 571 ;
572 [label="gini = 0.0\nsamples = 3\nvalue = [0, 3]"] ;
570 -> 572 ;
573 [label="x[0] <= 19.0\ngini = 0.444\nsamples = 3\nvalue = [1, 2]"] ;
567 -> 573 ;
574 [label="gini = 0.0\nsamples = 1\nvalue = [0, 1]"] ;
573 -> 574 ;
575 [label="x[1] <= 92.5\ngini = 0.5\nsamples = 2\nvalue = [1, 1]"] ;
573 -> 575 ;
576 [label="gini = 0.0\nsamples = 1\nvalue = [1, 0]"] ;
575 -> 576 ;
577 [label="gini = 0.0\nsamples = 1\nvalue = [0, 1]"] ;
575 -> 577 ;
578 [label="x[0] <= 19.5\ngini = 0.444\nsamples = 3\nvalue = [1, 2]"] ;
566 -> 578 ;
579 [label="gini = 0.0\nsamples = 1\nvalue = [1, 0]"] ;
578 -> 579 ;
580 [label="gini = 0.0\nsamples = 2\nvalue = [0, 2]"] ;
578 -> 580 ;
581 [label="x[10] <= 0.5\ngini = 0.444\nsamples = 3\nvalue = [2, 1]"] ;
541 -> 581 ;
582 [label="gini = 0.0\nsamples = 2\nvalue = [2, 0]"] ;
581 -> 582 ;
583 [label="gini = 0.0\nsamples = 1\nvalue = [0, 1]"] ;
581 -> 583 ;
584 [label="x[1] <= 38.0\ngini = 0.32\nsamples = 5\nvalue = [4, 1]"] ;
540 -> 584 ;
585 [label="gini = 0.0\nsamples = 2\nvalue = [2, 0]"] ;
584 -> 585 ;
586 [label="x[1] <= 60.0\ngini = 0.444\nsamples = 3\nvalue = [2, 1]"] ;
584 -> 586 ;
587 [label="x[3] <= 0.5\ngini = 0.5\nsamples = 2\nvalue = [1, 1]"] ;
586 -> 587 ;
588 [label="gini = 0.0\nsamples = 1\nvalue = [1, 0]"] ;
587 -> 588 ;
589 [label="gini = 0.0\nsamples = 1\nvalue = [0, 1]"] ;
587 -> 589 ;
590 [label="gini = 0.0\nsamples = 1\nvalue = [1, 0]"] ;
586 -> 590 ;
591 [label="x[0] <= 34.5\ngini = 0.459\nsamples = 505\nvalue = [180, 325]"] ;
539 -> 591 ;
592 [label="x[3] <= 0.5\ngini = 0.477\nsamples = 305\nvalue = [120, 185]"] ;
591 -> 592 ;
593 [label="x[13] <= 0.5\ngini = 0.447\nsamples = 175\nvalue = [59, 116]"] ;
592 -> 593 ;
594 [label="x[24] <= 0.5\ngini = 0.436\nsamples = 165\nvalue = [53, 112]"] ;
593 -> 594 ;
595 [label="x[1] <= 97.5\ngini = 0.444\nsamples = 159\nvalue = [53, 106]"] ;
594 -> 595 ;
596 [label="x[14] <= 0.5\ngini = 0.451\nsamples = 154\nvalue = [53, 101]"] ;
595 -> 596 ;
597 [label="x[1] <= 51.5\ngini = 0.441\nsamples = 143\nvalue = [47, 96]"] ;
596 -> 597 ;
598 [label="x[33] <= 0.5\ngini = 0.366\nsamples = 58\nvalue = [14, 44]"] ;
597 -> 598 ;
599 [label="x[1] <= 32.5\ngini = 0.352\nsamples = 57\nvalue = [13, 44]"] ;
598 -> 599 ;
600 [label="x[4] <= 0.5\ngini = 0.428\nsamples = 29\nvalue = [9, 20]"] ;
599 -> 600 ;
601 [label="x[1] <= 31.5\ngini = 0.375\nsamples = 24\nvalue = [6, 18]"] ;
600 -> 601 ;
602 [label="x[0] <= 22.5\ngini = 0.298\nsamples = 22\nvalue = [4, 18]"] ;
601 -> 602 ;
603 [label="gini = 0.0\nsamples = 1\nvalue = [1, 0]"] ;
602 -> 603 ;
604 [label="x[0] <= 31.5\ngini = 0.245\nsamples = 21\nvalue = [3, 18]"] ;
602 -> 604 ;
605 [label="x[34] <= 0.5\ngini = 0.124\nsamples = 15\nvalue = [1, 14]"] ;
604 -> 605 ;
606 [label="gini = 0.0\nsamples = 14\nvalue = [0, 14]"] ;
605 -> 606 ;
607 [label="gini = 0.0\nsamples = 1\nvalue = [1, 0]"] ;
605 -> 607 ;
608 [label="x[1] <= 29.5\ngini = 0.444\nsamples = 6\nvalue = [2, 4]"] ;
604 -> 608 ;
609 [label="x[32] <= 0.5\ngini = 0.32\nsamples = 5\nvalue = [1, 4]"] ;
608 -> 609 ;
610 [label="gini = 0.0\nsamples = 3\nvalue = [0, 3]"] ;
609 -> 610 ;
611 [label="x[1] <= 26.5\ngini = 0.5\nsamples = 2\nvalue = [1, 1]"] ;
609 -> 611 ;
612 [label="gini = 0.0\nsamples = 1\nvalue = [1, 0]"] ;
611 -> 612 ;
613 [label="gini = 0.0\nsamples = 1\nvalue = [0, 1]"] ;
611 -> 613 ;
614 [label="gini = 0.0\nsamples = 1\nvalue = [1, 0]"] ;
608 -> 614 ;
615 [label="gini = 0.0\nsamples = 2\nvalue = [2, 0]"] ;
601 -> 615 ;
616 [label="x[28] <= 0.5\ngini = 0.48\nsamples = 5\nvalue = [3, 2]"] ;
600 -> 616 ;
617 [label="x[1] <= 28.5\ngini = 0.375\nsamples = 4\nvalue = [3, 1]"] ;
616 -> 617 ;
618 [label="gini = 0.0\nsamples = 3\nvalue = [3, 0]"] ;
617 -> 618 ;
619 [label="gini = 0.0\nsamples = 1\nvalue = [0, 1]"] ;
617 -> 619 ;
620 [label="gini = 0.0\nsamples = 1\nvalue = [0, 1]"] ;
616 -> 620 ;
621 [label="x[26] <= 0.5\ngini = 0.245\nsamples = 28\nvalue = [4, 24]"] ;
599 -> 621 ;
622 [label="x[0] <= 29.5\ngini = 0.204\nsamples = 26\nvalue = [3, 23]"] ;
621 -> 622 ;
623 [label="gini = 0.0\nsamples = 15\nvalue = [0, 15]"] ;
622 -> 623 ;
624 [label="x[0] <= 33.0\ngini = 0.397\nsamples = 11\nvalue = [3, 8]"] ;
622 -> 624 ;
625 [label="x[1] <= 39.0\ngini = 0.49\nsamples = 7\nvalue = [3, 4]"] ;
624 -> 625 ;
626 [label="gini = 0.0\nsamples = 2\nvalue = [0, 2]"] ;
625 -> 626 ;
627 [label="x[1] <= 45.0\ngini = 0.48\nsamples = 5\nvalue = [3, 2]"] ;
625 -> 627 ;
628 [label="gini = 0.0\nsamples = 2\nvalue = [2, 0]"] ;
627 -> 628 ;
629 [label="x[1] <= 49.0\ngini = 0.444\nsamples = 3\nvalue = [1, 2]"] ;
627 -> 629 ;
630 [label="gini = 0.0\nsamples = 2\nvalue = [0, 2]"] ;
629 -> 630 ;
631 [label="gini = 0.0\nsamples = 1\nvalue = [1, 0]"] ;
629 -> 631 ;
632 [label="gini = 0.0\nsamples = 4\nvalue = [0, 4]"] ;
624 -> 632 ;
633 [label="x[1] <= 47.0\ngini = 0.5\nsamples = 2\nvalue = [1, 1]"] ;
621 -> 633 ;
634 [label="gini = 0.0\nsamples = 1\nvalue = [1, 0]"] ;
633 -> 634 ;
635 [label="gini = 0.0\nsamples = 1\nvalue = [0, 1]"] ;
633 -> 635 ;
636 [label="gini = 0.0\nsamples = 1\nvalue = [1, 0]"] ;
598 -> 636 ;
637 [label="x[1] <= 54.5\ngini = 0.475\nsamples = 85\nvalue = [33, 52]"] ;
597 -> 637 ;
638 [label="x[29] <= 0.5\ngini = 0.32\nsamples = 5\nvalue = [4, 1]"] ;
637 -> 638 ;
639 [label="gini = 0.0\nsamples = 4\nvalue = [4, 0]"] ;
638 -> 639 ;
640 [label="gini = 0.0\nsamples = 1\nvalue = [0, 1]"] ;
638 -> 640 ;
641 [label="x[0] <= 26.5\ngini = 0.462\nsamples = 80\nvalue = [29, 51]"] ;
637 -> 641 ;
642 [label="x[17] <= 0.5\ngini = 0.498\nsamples = 32\nvalue = [15, 17]"] ;
641 -> 642 ;
643 [label="x[27] <= 0.5\ngini = 0.491\nsamples = 30\nvalue = [13, 17]"] ;
642 -> 643 ;
644 [label="x[1] <= 94.0\ngini = 0.497\nsamples = 28\nvalue = [13, 15]"] ;
643 -> 644 ;
645 [label="x[1] <= 79.5\ngini = 0.499\nsamples = 23\nvalue = [12, 11]"] ;
644 -> 645 ;
646 [label="x[33] <= 0.5\ngini = 0.48\nsamples = 15\nvalue = [6, 9]"] ;
645 -> 646 ;
647 [label="x[1] <= 68.5\ngini = 0.459\nsamples = 14\nvalue = [5, 9]"] ;
646 -> 647 ;
648 [label="x[0] <= 23.5\ngini = 0.5\nsamples = 10\nvalue = [5, 5]"] ;
647 -> 648 ;
649 [label="x[1] <= 65.5\ngini = 0.375\nsamples = 4\nvalue = [1, 3]"] ;
648 -> 649 ;
650 [label="gini = 0.0\nsamples = 3\nvalue = [0, 3]"] ;
649 -> 650 ;
651 [label="gini = 0.0\nsamples = 1\nvalue = [1, 0]"] ;
649 -> 651 ;
652 [label="x[4] <= 0.5\ngini = 0.444\nsamples = 6\nvalue = [4, 2]"] ;
648 -> 652 ;
653 [label="x[0] <= 24.5\ngini = 0.444\nsamples = 3\nvalue = [1, 2]"] ;
652 -> 653 ;
654 [label="gini = 0.0\nsamples = 1\nvalue = [1, 0]"] ;
653 -> 654 ;
655 [label="gini = 0.0\nsamples = 2\nvalue = [0, 2]"] ;
653 -> 655 ;
656 [label="gini = 0.0\nsamples = 3\nvalue = [3, 0]"] ;
652 -> 656 ;
657 [label="gini = 0.0\nsamples = 4\nvalue = [0, 4]"] ;
647 -> 657 ;
658 [label="gini = 0.0\nsamples = 1\nvalue = [1, 0]"] ;
646 -> 658 ;
659 [label="x[32] <= 0.5\ngini = 0.375\nsamples = 8\nvalue = [6, 2]"] ;
645 -> 659 ;
660 [label="x[22] <= 0.5\ngini = 0.245\nsamples = 7\nvalue = [6, 1]"] ;
659 -> 660 ;
661 [label="gini = 0.0\nsamples = 5\nvalue = [5, 0]"] ;
660 -> 661 ;
662 [label="x[1] <= 84.0\ngini = 0.5\nsamples = 2\nvalue = [1, 1]"] ;
660 -> 662 ;
663 [label="gini = 0.0\nsamples = 1\nvalue = [1, 0]"] ;
662 -> 663 ;
664 [label="gini = 0.0\nsamples = 1\nvalue = [0, 1]"] ;
662 -> 664 ;
665 [label="gini = 0.0\nsamples = 1\nvalue = [0, 1]"] ;
659 -> 665 ;
666 [label="x[2] <= 0.5\ngini = 0.32\nsamples = 5\nvalue = [1, 4]"] ;
644 -> 666 ;
667 [label="gini = 0.0\nsamples = 1\nvalue = [1, 0]"] ;
666 -> 667 ;
668 [label="gini = 0.0\nsamples = 4\nvalue = [0, 4]"] ;
666 -> 668 ;
669 [label="gini = 0.0\nsamples = 2\nvalue = [0, 2]"] ;
643 -> 669 ;
670 [label="gini = 0.0\nsamples = 2\nvalue = [2, 0]"] ;
642 -> 670 ;
671 [label="x[30] <= 0.5\ngini = 0.413\nsamples = 48\nvalue = [14, 34]"] ;
641 -> 671 ;
672 [label="x[4] <= 0.5\ngini = 0.4\nsamples = 47\nvalue = [13, 34]"] ;
671 -> 672 ;
673 [label="x[26] <= 0.5\ngini = 0.452\nsamples = 29\nvalue = [10, 19]"] ;
672 -> 673 ;
674 [label="x[34] <= 0.5\ngini = 0.436\nsamples = 28\nvalue = [9, 19]"] ;
673 -> 674 ;
675 [label="x[1] <= 80.0\ngini = 0.417\nsamples = 27\nvalue = [8, 19]"] ;
674 -> 675 ;
676 [label="x[1] <= 64.0\ngini = 0.484\nsamples = 17\nvalue = [7, 10]"] ;
675 -> 676 ;
677 [label="x[25] <= 0.5\ngini = 0.278\nsamples = 6\nvalue = [1, 5]"] ;
676 -> 677 ;
678 [label="gini = 0.0\nsamples = 5\nvalue = [0, 5]"] ;
677 -> 678 ;
679 [label="gini = 0.0\nsamples = 1\nvalue = [1, 0]"] ;
677 -> 679 ;
680 [label="x[15] <= 0.5\ngini = 0.496\nsamples = 11\nvalue = [6, 5]"] ;
676 -> 680 ;
681 [label="x[11] <= 0.5\ngini = 0.444\nsamples = 9\nvalue = [6, 3]"] ;
680 -> 681 ;
682 [label="x[25] <= 0.5\ngini = 0.375\nsamples = 8\nvalue = [6, 2]"] ;
681 -> 682 ;
683 [label="x[1] <= 78.5\ngini = 0.245\nsamples = 7\nvalue = [6, 1]"] ;
682 -> 683 ;
684 [label="gini = 0.0\nsamples = 5\nvalue = [5, 0]"] ;
683 -> 684 ;
685 [label="x[0] <= 31.5\ngini = 0.5\nsamples = 2\nvalue = [1, 1]"] ;
683 -> 685 ;
686 [label="gini = 0.0\nsamples = 1\nvalue = [0, 1]"] ;
685 -> 686 ;
687 [label="gini = 0.0\nsamples = 1\nvalue = [1, 0]"] ;
685 -> 687 ;
688 [label="gini = 0.0\nsamples = 1\nvalue = [0, 1]"] ;
682 -> 688 ;
689 [label="gini = 0.0\nsamples = 1\nvalue = [0, 1]"] ;
681 -> 689 ;
690 [label="gini = 0.0\nsamples = 2\nvalue = [0, 2]"] ;
680 -> 690 ;
691 [label="x[29] <= 0.5\ngini = 0.18\nsamples = 10\nvalue = [1, 9]"] ;
675 -> 691 ;
692 [label="gini = 0.0\nsamples = 9\nvalue = [0, 9]"] ;
691 -> 692 ;
693 [label="gini = 0.0\nsamples = 1\nvalue = [1, 0]"] ;
691 -> 693 ;
694 [label="gini = 0.0\nsamples = 1\nvalue = [1, 0]"] ;
674 -> 694 ;
695 [label="gini = 0.0\nsamples = 1\nvalue = [1, 0]"] ;
673 -> 695 ;
696 [label="x[11] <= 0.5\ngini = 0.278\nsamples = 18\nvalue = [3, 15]"] ;
672 -> 696 ;
697 [label="x[23] <= 0.5\ngini = 0.208\nsamples = 17\nvalue = [2, 15]"] ;
696 -> 697 ;
698 [label="x[27] <= 0.5\ngini = 0.133\nsamples = 14\nvalue = [1, 13]"] ;
697 -> 698 ;
699 [label="gini = 0.0\nsamples = 11\nvalue = [0, 11]"] ;
698 -> 699 ;
700 [label="x[1] <= 80.0\ngini = 0.444\nsamples = 3\nvalue = [1, 2]"] ;
698 -> 700 ;
701 [label="gini = 0.0\nsamples = 2\nvalue = [0, 2]"] ;
700 -> 701 ;
702 [label="gini = 0.0\nsamples = 1\nvalue = [1, 0]"] ;
700 -> 702 ;
703 [label="x[0] <= 29.0\ngini = 0.444\nsamples = 3\nvalue = [1, 2]"] ;
697 -> 703 ;
704 [label="gini = 0.0\nsamples = 1\nvalue = [0, 1]"] ;
703 -> 704 ;
705 [label="x[1] <= 69.5\ngini = 0.5\nsamples = 2\nvalue = [1, 1]"] ;
703 -> 705 ;
706 [label="gini = 0.0\nsamples = 1\nvalue = [1, 0]"] ;
705 -> 706 ;
707 [label="gini = 0.0\nsamples = 1\nvalue = [0, 1]"] ;
705 -> 707 ;
708 [label="gini = 0.0\nsamples = 1\nvalue = [1, 0]"] ;
696 -> 708 ;
709 [label="gini = 0.0\nsamples = 1\nvalue = [1, 0]"] ;
671 -> 709 ;
710 [label="x[0] <= 25.0\ngini = 0.496\nsamples = 11\nvalue = [6, 5]"] ;
596 -> 710 ;
711 [label="gini = 0.0\nsamples = 3\nvalue = [0, 3]"] ;
710 -> 711 ;
712 [label="x[1] <= 57.5\ngini = 0.375\nsamples = 8\nvalue = [6, 2]"] ;
710 -> 712 ;
713 [label="gini = 0.0\nsamples = 5\nvalue = [5, 0]"] ;
712 -> 713 ;
714 [label="x[0] <= 27.5\ngini = 0.444\nsamples = 3\nvalue = [1, 2]"] ;
712 -> 714 ;
715 [label="gini = 0.0\nsamples = 1\nvalue = [1, 0]"] ;
714 -> 715 ;
716 [label="gini = 0.0\nsamples = 2\nvalue = [0, 2]"] ;
714 -> 716 ;
717 [label="gini = 0.0\nsamples = 5\nvalue = [0, 5]"] ;
595 -> 717 ;
718 [label="gini = 0.0\nsamples = 6\nvalue = [0, 6]"] ;
594 -> 718 ;
719 [label="x[1] <= 59.5\ngini = 0.48\nsamples = 10\nvalue = [6, 4]"] ;
593 -> 719 ;
720 [label="x[1] <= 43.0\ngini = 0.32\nsamples = 5\nvalue = [4, 1]"] ;
719 -> 720 ;
721 [label="gini = 0.0\nsamples = 1\nvalue = [0, 1]"] ;
720 -> 721 ;
722 [label="gini = 0.0\nsamples = 4\nvalue = [4, 0]"] ;
720 -> 722 ;
723 [label="x[1] <= 68.5\ngini = 0.48\nsamples = 5\nvalue = [2, 3]"] ;
719 -> 723 ;
724 [label="gini = 0.0\nsamples = 2\nvalue = [0, 2]"] ;
723 -> 724 ;
725 [label="x[5] <= 0.5\ngini = 0.444\nsamples = 3\nvalue = [2, 1]"] ;
723 -> 725 ;
726 [label="gini = 0.0\nsamples = 2\nvalue = [2, 0]"] ;
725 -> 726 ;
727 [label="gini = 0.0\nsamples = 1\nvalue = [0, 1]"] ;
725 -> 727 ;
728 [label="x[0] <= 32.5\ngini = 0.498\nsamples = 130\nvalue = [61, 69]"] ;
592 -> 728 ;
729 [label="x[1] <= 76.5\ngini = 0.493\nsamples = 116\nvalue = [51, 65]"] ;
728 -> 729 ;
730 [label="x[1] <= 71.5\ngini = 0.462\nsamples = 80\nvalue = [29, 51]"] ;
729 -> 730 ;
731 [label="x[14] <= 0.5\ngini = 0.483\nsamples = 71\nvalue = [29, 42]"] ;
730 -> 731 ;
732 [label="x[18] <= 0.5\ngini = 0.491\nsamples = 67\nvalue = [29, 38]"] ;
731 -> 732 ;
733 [label="x[13] <= 0.5\ngini = 0.497\nsamples = 63\nvalue = [29, 34]"] ;
732 -> 733 ;
734 [label="x[0] <= 27.5\ngini = 0.499\nsamples = 60\nvalue = [29, 31]"] ;
733 -> 734 ;
735 [label="x[29] <= 0.5\ngini = 0.485\nsamples = 29\nvalue = [17, 12]"] ;
734 -> 735 ;
736 [label="x[15] <= 0.5\ngini = 0.461\nsamples = 25\nvalue = [16, 9]"] ;
735 -> 736 ;
737 [label="x[1] <= 34.0\ngini = 0.444\nsamples = 24\nvalue = [16, 8]"] ;
736 -> 737 ;
738 [label="gini = 0.0\nsamples = 5\nvalue = [5, 0]"] ;
737 -> 738 ;
739 [label="x[23] <= 0.5\ngini = 0.488\nsamples = 19\nvalue = [11, 8]"] ;
737 -> 739 ;
740 [label="x[32] <= 0.5\ngini = 0.498\nsamples = 17\nvalue = [9, 8]"] ;
739 -> 740 ;
741 [label="x[22] <= 0.5\ngini = 0.498\nsamples = 15\nvalue = [7, 8]"] ;
740 -> 741 ;
742 [label="x[0] <= 24.5\ngini = 0.473\nsamples = 13\nvalue = [5, 8]"] ;
741 -> 742 ;
743 [label="x[19] <= 0.5\ngini = 0.49\nsamples = 7\nvalue = [4, 3]"] ;
742 -> 743 ;
744 [label="x[1] <= 61.5\ngini = 0.444\nsamples = 6\nvalue = [4, 2]"] ;
743 -> 744 ;
745 [label="x[34] <= 0.5\ngini = 0.32\nsamples = 5\nvalue = [4, 1]"] ;
744 -> 745 ;
746 [label="gini = 0.0\nsamples = 4\nvalue = [4, 0]"] ;
745 -> 746 ;
747 [label="gini = 0.0\nsamples = 1\nvalue = [0, 1]"] ;
745 -> 747 ;
748 [label="gini = 0.0\nsamples = 1\nvalue = [0, 1]"] ;
744 -> 748 ;
749 [label="gini = 0.0\nsamples = 1\nvalue = [0, 1]"] ;
743 -> 749 ;
750 [label="x[1] <= 70.0\ngini = 0.278\nsamples = 6\nvalue = [1, 5]"] ;
742 -> 750 ;
751 [label="gini = 0.0\nsamples = 5\nvalue = [0, 5]"] ;
750 -> 751 ;
752 [label="gini = 0.0\nsamples = 1\nvalue = [1, 0]"] ;
750 -> 752 ;
753 [label="gini = 0.0\nsamples = 2\nvalue = [2, 0]"] ;
741 -> 753 ;
754 [label="gini = 0.0\nsamples = 2\nvalue = [2, 0]"] ;
740 -> 754 ;
755 [label="gini = 0.0\nsamples = 2\nvalue = [2, 0]"] ;
739 -> 755 ;
756 [label="gini = 0.0\nsamples = 1\nvalue = [0, 1]"] ;
736 -> 756 ;
757 [label="x[1] <= 24.0\ngini = 0.375\nsamples = 4\nvalue = [1, 3]"] ;
735 -> 757 ;
758 [label="gini = 0.0\nsamples = 1\nvalue = [1, 0]"] ;
757 -> 758 ;
759 [label="gini = 0.0\nsamples = 3\nvalue = [0, 3]"] ;
757 -> 759 ;
760 [label="x[29] <= 0.5\ngini = 0.475\nsamples = 31\nvalue = [12, 19]"] ;
734 -> 760 ;
761 [label="x[24] <= 0.5\ngini = 0.452\nsamples = 29\nvalue = [10, 19]"] ;
760 -> 761 ;
762 [label="x[1] <= 65.5\ngini = 0.403\nsamples = 25\nvalue = [7, 18]"] ;
761 -> 762 ;
763 [label="x[25] <= 0.5\ngini = 0.32\nsamples = 20\nvalue = [4, 16]"] ;
762 -> 763 ;
764 [label="x[0] <= 30.5\ngini = 0.266\nsamples = 19\nvalue = [3, 16]"] ;
763 -> 764 ;
765 [label="gini = 0.0\nsamples = 7\nvalue = [0, 7]"] ;
764 -> 765 ;
766 [label="x[1] <= 52.5\ngini = 0.375\nsamples = 12\nvalue = [3, 9]"] ;
764 -> 766 ;
767 [label="x[10] <= 0.5\ngini = 0.469\nsamples = 8\nvalue = [3, 5]"] ;
766 -> 767 ;
768 [label="x[1] <= 27.5\ngini = 0.408\nsamples = 7\nvalue = [2, 5]"] ;
767 -> 768 ;
769 [label="gini = 0.0\nsamples = 2\nvalue = [0, 2]"] ;
768 -> 769 ;
770 [label="x[1] <= 36.5\ngini = 0.48\nsamples = 5\nvalue = [2, 3]"] ;
768 -> 770 ;
771 [label="x[26] <= 0.5\ngini = 0.444\nsamples = 3\nvalue = [2, 1]"] ;
770 -> 771 ;
772 [label="gini = 0.0\nsamples = 1\nvalue = [1, 0]"] ;
771 -> 772 ;
773 [label="x[0] <= 31.5\ngini = 0.5\nsamples = 2\nvalue = [1, 1]"] ;
771 -> 773 ;
774 [label="gini = 0.0\nsamples = 1\nvalue = [0, 1]"] ;
773 -> 774 ;
775 [label="gini = 0.0\nsamples = 1\nvalue = [1, 0]"] ;
773 -> 775 ;
776 [label="gini = 0.0\nsamples = 2\nvalue = [0, 2]"] ;
770 -> 776 ;
777 [label="gini = 0.0\nsamples = 1\nvalue = [1, 0]"] ;
767 -> 777 ;
778 [label="gini = 0.0\nsamples = 4\nvalue = [0, 4]"] ;
766 -> 778 ;
779 [label="gini = 0.0\nsamples = 1\nvalue = [1, 0]"] ;
763 -> 779 ;
780 [label="x[0] <= 30.0\ngini = 0.48\nsamples = 5\nvalue = [3, 2]"] ;
762 -> 780 ;
781 [label="x[1] <= 69.5\ngini = 0.444\nsamples = 3\nvalue = [1, 2]"] ;
780 -> 781 ;
782 [label="gini = 0.0\nsamples = 2\nvalue = [0, 2]"] ;
781 -> 782 ;
783 [label="gini = 0.0\nsamples = 1\nvalue = [1, 0]"] ;
781 -> 783 ;
784 [label="gini = 0.0\nsamples = 2\nvalue = [2, 0]"] ;
780 -> 784 ;
785 [label="x[1] <= 69.5\ngini = 0.375\nsamples = 4\nvalue = [3, 1]"] ;
761 -> 785 ;
786 [label="gini = 0.0\nsamples = 3\nvalue = [3, 0]"] ;
785 -> 786 ;
787 [label="gini = 0.0\nsamples = 1\nvalue = [0, 1]"] ;
785 -> 787 ;
788 [label="gini = 0.0\nsamples = 2\nvalue = [2, 0]"] ;
760 -> 788 ;
789 [label="gini = 0.0\nsamples = 3\nvalue = [0, 3]"] ;
733 -> 789 ;
790 [label="gini = 0.0\nsamples = 4\nvalue = [0, 4]"] ;
732 -> 790 ;
791 [label="gini = 0.0\nsamples = 4\nvalue = [0, 4]"] ;
731 -> 791 ;
792 [label="gini = 0.0\nsamples = 9\nvalue = [0, 9]"] ;
730 -> 792 ;
793 [label="x[0] <= 31.5\ngini = 0.475\nsamples = 36\nvalue = [22, 14]"] ;
729 -> 793 ;
794 [label="x[1] <= 87.5\ngini = 0.457\nsamples = 34\nvalue = [22, 12]"] ;
793 -> 794 ;
795 [label="x[26] <= 0.5\ngini = 0.18\nsamples = 10\nvalue = [9, 1]"] ;
794 -> 795 ;
796 [label="gini = 0.0\nsamples = 8\nvalue = [8, 0]"] ;
795 -> 796 ;
797 [label="x[1] <= 79.5\ngini = 0.5\nsamples = 2\nvalue = [1, 1]"] ;
795 -> 797 ;
798 [label="gini = 0.0\nsamples = 1\nvalue = [0, 1]"] ;
797 -> 798 ;
799 [label="gini = 0.0\nsamples = 1\nvalue = [1, 0]"] ;
797 -> 799 ;
800 [label="x[1] <= 94.5\ngini = 0.497\nsamples = 24\nvalue = [13, 11]"] ;
794 -> 800 ;
801 [label="x[30] <= 0.5\ngini = 0.463\nsamples = 11\nvalue = [4, 7]"] ;
800 -> 801 ;
802 [label="x[0] <= 22.5\ngini = 0.42\nsamples = 10\nvalue = [3, 7]"] ;
801 -> 802 ;
803 [label="gini = 0.0\nsamples = 1\nvalue = [1, 0]"] ;
802 -> 803 ;
804 [label="x[29] <= 0.5\ngini = 0.346\nsamples = 9\nvalue = [2, 7]"] ;
802 -> 804 ;
805 [label="x[28] <= 0.5\ngini = 0.219\nsamples = 8\nvalue = [1, 7]"] ;
804 -> 805 ;
806 [label="gini = 0.0\nsamples = 6\nvalue = [0, 6]"] ;
805 -> 806 ;
807 [label="x[1] <= 92.0\ngini = 0.5\nsamples = 2\nvalue = [1, 1]"] ;
805 -> 807 ;
808 [label="gini = 0.0\nsamples = 1\nvalue = [0, 1]"] ;
807 -> 808 ;
809 [label="gini = 0.0\nsamples = 1\nvalue = [1, 0]"] ;
807 -> 809 ;
810 [label="gini = 0.0\nsamples = 1\nvalue = [1, 0]"] ;
804 -> 810 ;
811 [label="gini = 0.0\nsamples = 1\nvalue = [1, 0]"] ;
801 -> 811 ;
812 [label="x[1] <= 97.5\ngini = 0.426\nsamples = 13\nvalue = [9, 4]"] ;
800 -> 812 ;
813 [label="x[28] <= 0.5\ngini = 0.219\nsamples = 8\nvalue = [7, 1]"] ;
812 -> 813 ;
814 [label="gini = 0.0\nsamples = 7\nvalue = [7, 0]"] ;
813 -> 814 ;
815 [label="gini = 0.0\nsamples = 1\nvalue = [0, 1]"] ;
813 -> 815 ;
816 [label="x[0] <= 24.5\ngini = 0.48\nsamples = 5\nvalue = [2, 3]"] ;
812 -> 816 ;
817 [label="gini = 0.0\nsamples = 2\nvalue = [0, 2]"] ;
816 -> 817 ;
818 [label="x[13] <= 0.5\ngini = 0.444\nsamples = 3\nvalue = [2, 1]"] ;
816 -> 818 ;
819 [label="gini = 0.0\nsamples = 2\nvalue = [2, 0]"] ;
818 -> 819 ;
820 [label="gini = 0.0\nsamples = 1\nvalue = [0, 1]"] ;
818 -> 820 ;
821 [label="gini = 0.0\nsamples = 2\nvalue = [0, 2]"] ;
793 -> 821 ;
822 [label="x[1] <= 65.0\ngini = 0.408\nsamples = 14\nvalue = [10, 4]"] ;
728 -> 822 ;
823 [label="x[26] <= 0.5\ngini = 0.18\nsamples = 10\nvalue = [9, 1]"] ;
822 -> 823 ;
824 [label="gini = 0.0\nsamples = 8\nvalue = [8, 0]"] ;
823 -> 824 ;
825 [label="x[1] <= 38.0\ngini = 0.5\nsamples = 2\nvalue = [1, 1]"] ;
823 -> 825 ;
826 [label="gini = 0.0\nsamples = 1\nvalue = [1, 0]"] ;
825 -> 826 ;
827 [label="gini = 0.0\nsamples = 1\nvalue = [0, 1]"] ;
825 -> 827 ;
828 [label="x[11] <= 0.5\ngini = 0.375\nsamples = 4\nvalue = [1, 3]"] ;
822 -> 828 ;
829 [label="gini = 0.0\nsamples = 3\nvalue = [0, 3]"] ;
828 -> 829 ;
830 [label="gini = 0.0\nsamples = 1\nvalue = [1, 0]"] ;
828 -> 830 ;
831 [label="x[1] <= 32.5\ngini = 0.42\nsamples = 200\nvalue = [60, 140]"] ;
591 -> 831 ;
832 [label="x[24] <= 0.5\ngini = 0.284\nsamples = 35\nvalue = [6, 29]"] ;
831 -> 832 ;
833 [label="x[1] <= 20.5\ngini = 0.219\nsamples = 32\nvalue = [4, 28]"] ;
832 -> 833 ;
834 [label="x[0] <= 38.5\ngini = 0.444\nsamples = 3\nvalue = [2, 1]"] ;
833 -> 834 ;
835 [label="gini = 0.0\nsamples = 1\nvalue = [0, 1]"] ;
834 -> 835 ;
836 [label="gini = 0.0\nsamples = 2\nvalue = [2, 0]"] ;
834 -> 836 ;
837 [label="x[25] <= 0.5\ngini = 0.128\nsamples = 29\nvalue = [2, 27]"] ;
833 -> 837 ;
838 [label="x[1] <= 21.5\ngini = 0.074\nsamples = 26\nvalue = [1, 25]"] ;
837 -> 838 ;
839 [label="x[0] <= 36.5\ngini = 0.444\nsamples = 3\nvalue = [1, 2]"] ;
838 -> 839 ;
840 [label="gini = 0.0\nsamples = 1\nvalue = [1, 0]"] ;
839 -> 840 ;
841 [label="gini = 0.0\nsamples = 2\nvalue = [0, 2]"] ;
839 -> 841 ;
842 [label="gini = 0.0\nsamples = 23\nvalue = [0, 23]"] ;
838 -> 842 ;
843 [label="x[0] <= 37.5\ngini = 0.444\nsamples = 3\nvalue = [1, 2]"] ;
837 -> 843 ;
844 [label="gini = 0.0\nsamples = 2\nvalue = [0, 2]"] ;
843 -> 844 ;
845 [label="gini = 0.0\nsamples = 1\nvalue = [1, 0]"] ;
843 -> 845 ;
846 [label="x[1] <= 21.0\ngini = 0.444\nsamples = 3\nvalue = [2, 1]"] ;
832 -> 846 ;
847 [label="gini = 0.0\nsamples = 1\nvalue = [0, 1]"] ;
846 -> 847 ;
848 [label="gini = 0.0\nsamples = 2\nvalue = [2, 0]"] ;
846 -> 848 ;
849 [label="x[1] <= 36.5\ngini = 0.44\nsamples = 165\nvalue = [54, 111]"] ;
831 -> 849 ;
850 [label="x[32] <= 0.5\ngini = 0.469\nsamples = 8\nvalue = [5, 3]"] ;
849 -> 850 ;
851 [label="x[0] <= 41.0\ngini = 0.5\nsamples = 6\nvalue = [3, 3]"] ;
850 -> 851 ;
852 [label="x[33] <= 0.5\ngini = 0.48\nsamples = 5\nvalue = [3, 2]"] ;
851 -> 852 ;
853 [label="x[1] <= 33.5\ngini = 0.5\nsamples = 4\nvalue = [2, 2]"] ;
852 -> 853 ;
854 [label="gini = 0.0\nsamples = 1\nvalue = [0, 1]"] ;
853 -> 854 ;
855 [label="x[30] <= 0.5\ngini = 0.444\nsamples = 3\nvalue = [2, 1]"] ;
853 -> 855 ;
856 [label="x[0] <= 38.5\ngini = 0.5\nsamples = 2\nvalue = [1, 1]"] ;
855 -> 856 ;
857 [label="gini = 0.0\nsamples = 1\nvalue = [0, 1]"] ;
856 -> 857 ;
858 [label="gini = 0.0\nsamples = 1\nvalue = [1, 0]"] ;
856 -> 858 ;
859 [label="gini = 0.0\nsamples = 1\nvalue = [1, 0]"] ;
855 -> 859 ;
860 [label="gini = 0.0\nsamples = 1\nvalue = [1, 0]"] ;
852 -> 860 ;
861 [label="gini = 0.0\nsamples = 1\nvalue = [0, 1]"] ;
851 -> 861 ;
862 [label="gini = 0.0\nsamples = 2\nvalue = [2, 0]"] ;
850 -> 862 ;
863 [label="x[23] <= 0.5\ngini = 0.429\nsamples = 157\nvalue = [49, 108]"] ;
849 -> 863 ;
864 [label="x[1] <= 61.5\ngini = 0.418\nsamples = 148\nvalue = [44, 104]"] ;
863 -> 864 ;
865 [label="x[3] <= 0.5\ngini = 0.467\nsamples = 62\nvalue = [23, 39]"] ;
864 -> 865 ;
866 [label="x[17] <= 0.5\ngini = 0.382\nsamples = 35\nvalue = [9, 26]"] ;
865 -> 866 ;
867 [label="x[24] <= 0.5\ngini = 0.334\nsamples = 33\nvalue = [7, 26]"] ;
866 -> 867 ;
868 [label="x[26] <= 0.5\ngini = 0.305\nsamples = 32\nvalue = [6, 26]"] ;
867 -> 868 ;
869 [label="x[1] <= 51.5\ngini = 0.271\nsamples = 31\nvalue = [5, 26]"] ;
868 -> 869 ;
870 [label="x[19] <= 0.5\ngini = 0.111\nsamples = 17\nvalue = [1, 16]"] ;
869 -> 870 ;
871 [label="gini = 0.0\nsamples = 15\nvalue = [0, 15]"] ;
870 -> 871 ;
872 [label="x[0] <= 39.5\ngini = 0.5\nsamples = 2\nvalue = [1, 1]"] ;
870 -> 872 ;
873 [label="gini = 0.0\nsamples = 1\nvalue = [1, 0]"] ;
872 -> 873 ;
874 [label="gini = 0.0\nsamples = 1\nvalue = [0, 1]"] ;
872 -> 874 ;
875 [label="x[13] <= 0.5\ngini = 0.408\nsamples = 14\nvalue = [4, 10]"] ;
869 -> 875 ;
876 [label="x[29] <= 0.5\ngini = 0.298\nsamples = 11\nvalue = [2, 9]"] ;
875 -> 876 ;
877 [label="gini = 0.0\nsamples = 8\nvalue = [0, 8]"] ;
876 -> 877 ;
878 [label="x[1] <= 59.0\ngini = 0.444\nsamples = 3\nvalue = [2, 1]"] ;
876 -> 878 ;
879 [label="gini = 0.0\nsamples = 2\nvalue = [2, 0]"] ;
878 -> 879 ;
880 [label="gini = 0.0\nsamples = 1\nvalue = [0, 1]"] ;
878 -> 880 ;
881 [label="x[0] <= 38.5\ngini = 0.444\nsamples = 3\nvalue = [2, 1]"] ;
875 -> 881 ;
882 [label="gini = 0.0\nsamples = 2\nvalue = [2, 0]"] ;
881 -> 882 ;
883 [label="gini = 0.0\nsamples = 1\nvalue = [0, 1]"] ;
881 -> 883 ;
884 [label="gini = 0.0\nsamples = 1\nvalue = [1, 0]"] ;
868 -> 884 ;
885 [label="gini = 0.0\nsamples = 1\nvalue = [1, 0]"] ;
867 -> 885 ;
886 [label="gini = 0.0\nsamples = 2\nvalue = [2, 0]"] ;
866 -> 886 ;
887 [label="x[0] <= 39.5\ngini = 0.499\nsamples = 27\nvalue = [14, 13]"] ;
865 -> 887 ;
888 [label="x[1] <= 41.0\ngini = 0.426\nsamples = 13\nvalue = [9, 4]"] ;
887 -> 888 ;
889 [label="gini = 0.0\nsamples = 2\nvalue = [0, 2]"] ;
888 -> 889 ;
890 [label="x[29] <= 0.5\ngini = 0.298\nsamples = 11\nvalue = [9, 2]"] ;
888 -> 890 ;
891 [label="x[13] <= 0.5\ngini = 0.18\nsamples = 10\nvalue = [9, 1]"] ;
890 -> 891 ;
892 [label="gini = 0.0\nsamples = 8\nvalue = [8, 0]"] ;
891 -> 892 ;
893 [label="x[1] <= 48.0\ngini = 0.5\nsamples = 2\nvalue = [1, 1]"] ;
891 -> 893 ;
894 [label="gini = 0.0\nsamples = 1\nvalue = [1, 0]"] ;
893 -> 894 ;
895 [label="gini = 0.0\nsamples = 1\nvalue = [0, 1]"] ;
893 -> 895 ;
896 [label="gini = 0.0\nsamples = 1\nvalue = [0, 1]"] ;
890 -> 896 ;
897 [label="x[0] <= 41.5\ngini = 0.459\nsamples = 14\nvalue = [5, 9]"] ;
887 -> 897 ;
898 [label="gini = 0.0\nsamples = 6\nvalue = [0, 6]"] ;
897 -> 898 ;
899 [label="x[18] <= 0.5\ngini = 0.469\nsamples = 8\nvalue = [5, 3]"] ;
897 -> 899 ;
900 [label="x[24] <= 0.5\ngini = 0.408\nsamples = 7\nvalue = [5, 2]"] ;
899 -> 900 ;
901 [label="gini = 0.0\nsamples = 4\nvalue = [4, 0]"] ;
900 -> 901 ;
902 [label="x[1] <= 49.5\ngini = 0.444\nsamples = 3\nvalue = [1, 2]"] ;
900 -> 902 ;
903 [label="gini = 0.0\nsamples = 1\nvalue = [1, 0]"] ;
902 -> 903 ;
904 [label="gini = 0.0\nsamples = 2\nvalue = [0, 2]"] ;
902 -> 904 ;
905 [label="gini = 0.0\nsamples = 1\nvalue = [0, 1]"] ;
899 -> 905 ;
906 [label="x[29] <= 0.5\ngini = 0.369\nsamples = 86\nvalue = [21, 65]"] ;
864 -> 906 ;
907 [label="x[1] <= 99.5\ngini = 0.343\nsamples = 82\nvalue = [18, 64]"] ;
906 -> 907 ;
908 [label="x[2] <= 0.5\ngini = 0.332\nsamples = 81\nvalue = [17, 64]"] ;
907 -> 908 ;
909 [label="x[0] <= 39.5\ngini = 0.27\nsamples = 56\nvalue = [9, 47]"] ;
908 -> 909 ;
910 [label="x[10] <= 0.5\ngini = 0.128\nsamples = 29\nvalue = [2, 27]"] ;
909 -> 910 ;
911 [label="x[26] <= 0.5\ngini = 0.069\nsamples = 28\nvalue = [1, 27]"] ;
910 -> 911 ;
912 [label="gini = 0.0\nsamples = 27\nvalue = [0, 27]"] ;
911 -> 912 ;
913 [label="gini = 0.0\nsamples = 1\nvalue = [1, 0]"] ;
911 -> 913 ;
914 [label="gini = 0.0\nsamples = 1\nvalue = [1, 0]"] ;
910 -> 914 ;
915 [label="x[20] <= 0.5\ngini = 0.384\nsamples = 27\nvalue = [7, 20]"] ;
909 -> 915 ;
916 [label="x[15] <= 0.5\ngini = 0.355\nsamples = 26\nvalue = [6, 20]"] ;
915 -> 916 ;
917 [label="x[14] <= 0.5\ngini = 0.32\nsamples = 25\nvalue = [5, 20]"] ;
916 -> 917 ;
918 [label="x[1] <= 93.5\ngini = 0.255\nsamples = 20\nvalue = [3, 17]"] ;
917 -> 918 ;
919 [label="x[11] <= 0.5\ngini = 0.124\nsamples = 15\nvalue = [1, 14]"] ;
918 -> 919 ;
920 [label="gini = 0.0\nsamples = 13\nvalue = [0, 13]"] ;
919 -> 920 ;
921 [label="x[1] <= 73.0\ngini = 0.5\nsamples = 2\nvalue = [1, 1]"] ;
919 -> 921 ;
922 [label="gini = 0.0\nsamples = 1\nvalue = [1, 0]"] ;
921 -> 922 ;
923 [label="gini = 0.0\nsamples = 1\nvalue = [0, 1]"] ;
921 -> 923 ;
924 [label="x[1] <= 97.5\ngini = 0.48\nsamples = 5\nvalue = [2, 3]"] ;
918 -> 924 ;
925 [label="x[4] <= 0.5\ngini = 0.444\nsamples = 3\nvalue = [2, 1]"] ;
924 -> 925 ;
926 [label="gini = 0.0\nsamples = 2\nvalue = [2, 0]"] ;
925 -> 926 ;
927 [label="gini = 0.0\nsamples = 1\nvalue = [0, 1]"] ;
925 -> 927 ;
928 [label="gini = 0.0\nsamples = 2\nvalue = [0, 2]"] ;
924 -> 928 ;
929 [label="x[0] <= 40.5\ngini = 0.48\nsamples = 5\nvalue = [2, 3]"] ;
917 -> 929 ;
930 [label="gini = 0.0\nsamples = 1\nvalue = [0, 1]"] ;
929 -> 930 ;
931 [label="x[1] <= 69.5\ngini = 0.5\nsamples = 4\nvalue = [2, 2]"] ;
929 -> 931 ;
932 [label="gini = 0.0\nsamples = 1\nvalue = [1, 0]"] ;
931 -> 932 ;
933 [label="x[1] <= 78.5\ngini = 0.444\nsamples = 3\nvalue = [1, 2]"] ;
931 -> 933 ;
934 [label="gini = 0.0\nsamples = 1\nvalue = [0, 1]"] ;
933 -> 934 ;
935 [label="x[1] <= 90.0\ngini = 0.5\nsamples = 2\nvalue = [1, 1]"] ;
933 -> 935 ;
936 [label="gini = 0.0\nsamples = 1\nvalue = [1, 0]"] ;
935 -> 936 ;
937 [label="gini = 0.0\nsamples = 1\nvalue = [0, 1]"] ;
935 -> 937 ;
938 [label="gini = 0.0\nsamples = 1\nvalue = [1, 0]"] ;
916 -> 938 ;
939 [label="gini = 0.0\nsamples = 1\nvalue = [1, 0]"] ;
915 -> 939 ;
940 [label="x[1] <= 88.0\ngini = 0.435\nsamples = 25\nvalue = [8, 17]"] ;
908 -> 940 ;
941 [label="x[0] <= 35.5\ngini = 0.32\nsamples = 15\nvalue = [3, 12]"] ;
940 -> 941 ;
942 [label="gini = 0.0\nsamples = 2\nvalue = [2, 0]"] ;
941 -> 942 ;
943 [label="x[28] <= 0.5\ngini = 0.142\nsamples = 13\nvalue = [1, 12]"] ;
941 -> 943 ;
944 [label="gini = 0.0\nsamples = 11\nvalue = [0, 11]"] ;
943 -> 944 ;
945 [label="x[0] <= 37.5\ngini = 0.5\nsamples = 2\nvalue = [1, 1]"] ;
943 -> 945 ;
946 [label="gini = 0.0\nsamples = 1\nvalue = [0, 1]"] ;
945 -> 946 ;
947 [label="gini = 0.0\nsamples = 1\nvalue = [1, 0]"] ;
945 -> 947 ;
948 [label="x[0] <= 38.5\ngini = 0.5\nsamples = 10\nvalue = [5, 5]"] ;
940 -> 948 ;
949 [label="x[34] <= 0.5\ngini = 0.408\nsamples = 7\nvalue = [2, 5]"] ;
948 -> 949 ;
950 [label="x[1] <= 91.5\ngini = 0.278\nsamples = 6\nvalue = [1, 5]"] ;
949 -> 950 ;
951 [label="x[17] <= 0.5\ngini = 0.5\nsamples = 2\nvalue = [1, 1]"] ;
950 -> 951 ;
952 [label="gini = 0.0\nsamples = 1\nvalue = [1, 0]"] ;
951 -> 952 ;
953 [label="gini = 0.0\nsamples = 1\nvalue = [0, 1]"] ;
951 -> 953 ;
954 [label="gini = 0.0\nsamples = 4\nvalue = [0, 4]"] ;
950 -> 954 ;
955 [label="gini = 0.0\nsamples = 1\nvalue = [1, 0]"] ;
949 -> 955 ;
956 [label="gini = 0.0\nsamples = 3\nvalue = [3, 0]"] ;
948 -> 956 ;
957 [label="gini = 0.0\nsamples = 1\nvalue = [1, 0]"] ;
907 -> 957 ;
958 [label="x[3] <= 0.5\ngini = 0.375\nsamples = 4\nvalue = [3, 1]"] ;
906 -> 958 ;
959 [label="x[1] <= 69.5\ngini = 0.5\nsamples = 2\nvalue = [1, 1]"] ;
958 -> 959 ;
960 [label="gini = 0.0\nsamples = 1\nvalue = [1, 0]"] ;
959 -> 960 ;
961 [label="gini = 0.0\nsamples = 1\nvalue = [0, 1]"] ;
959 -> 961 ;
962 [label="gini = 0.0\nsamples = 2\nvalue = [2, 0]"] ;
958 -> 962 ;
963 [label="x[0] <= 37.5\ngini = 0.494\nsamples = 9\nvalue = [5, 4]"] ;
863 -> 963 ;
964 [label="x[1] <= 64.0\ngini = 0.32\nsamples = 5\nvalue = [4, 1]"] ;
963 -> 964 ;
965 [label="gini = 0.0\nsamples = 1\nvalue = [0, 1]"] ;
964 -> 965 ;
966 [label="gini = 0.0\nsamples = 4\nvalue = [4, 0]"] ;
964 -> 966 ;
967 [label="x[1] <= 53.5\ngini = 0.375\nsamples = 4\nvalue = [1, 3]"] ;
963 -> 967 ;
968 [label="gini = 0.0\nsamples = 1\nvalue = [1, 0]"] ;
967 -> 968 ;
969 [label="gini = 0.0\nsamples = 3\nvalue = [0, 3]"] ;
967 -> 969 ;
970 [label="x[1] <= 93.0\ngini = 0.499\nsamples = 29\nvalue = [15, 14]"] ;
538 -> 970 ;
971 [label="x[0] <= 36.5\ngini = 0.48\nsamples = 25\nvalue = [15, 10]"] ;
970 -> 971 ;
972 [label="x[5] <= 0.5\ngini = 0.5\nsamples = 20\nvalue = [10, 10]"] ;
971 -> 972 ;
973 [label="x[1] <= 28.0\ngini = 0.484\nsamples = 17\nvalue = [7, 10]"] ;
972 -> 973 ;
974 [label="gini = 0.0\nsamples = 3\nvalue = [0, 3]"] ;
973 -> 974 ;
975 [label="x[0] <= 19.5\ngini = 0.5\nsamples = 14\nvalue = [7, 7]"] ;
973 -> 975 ;
976 [label="x[1] <= 44.5\ngini = 0.375\nsamples = 4\nvalue = [3, 1]"] ;
975 -> 976 ;
977 [label="x[3] <= 0.5\ngini = 0.5\nsamples = 2\nvalue = [1, 1]"] ;
976 -> 977 ;
978 [label="gini = 0.0\nsamples = 1\nvalue = [1, 0]"] ;
977 -> 978 ;
979 [label="gini = 0.0\nsamples = 1\nvalue = [0, 1]"] ;
977 -> 979 ;
980 [label="gini = 0.0\nsamples = 2\nvalue = [2, 0]"] ;
976 -> 980 ;
981 [label="x[1] <= 56.0\ngini = 0.48\nsamples = 10\nvalue = [4, 6]"] ;
975 -> 981 ;
982 [label="x[1] <= 46.5\ngini = 0.49\nsamples = 7\nvalue = [4, 3]"] ;
981 -> 982 ;
983 [label="x[1] <= 31.5\ngini = 0.48\nsamples = 5\nvalue = [2, 3]"] ;
982 -> 983 ;
984 [label="gini = 0.0\nsamples = 1\nvalue = [1, 0]"] ;
983 -> 984 ;
985 [label="x[0] <= 29.0\ngini = 0.375\nsamples = 4\nvalue = [1, 3]"] ;
983 -> 985 ;
986 [label="x[1] <= 35.0\ngini = 0.5\nsamples = 2\nvalue = [1, 1]"] ;
985 -> 986 ;
987 [label="gini = 0.0\nsamples = 1\nvalue = [0, 1]"] ;
986 -> 987 ;
988 [label="gini = 0.0\nsamples = 1\nvalue = [1, 0]"] ;
986 -> 988 ;
989 [label="gini = 0.0\nsamples = 2\nvalue = [0, 2]"] ;
985 -> 989 ;
990 [label="gini = 0.0\nsamples = 2\nvalue = [2, 0]"] ;
982 -> 990 ;
991 [label="gini = 0.0\nsamples = 3\nvalue = [0, 3]"] ;
981 -> 991 ;
992 [label="gini = 0.0\nsamples = 3\nvalue = [3, 0]"] ;
972 -> 992 ;
993 [label="gini = 0.0\nsamples = 5\nvalue = [5, 0]"] ;
971 -> 993 ;
994 [label="gini = 0.0\nsamples = 4\nvalue = [0, 4]"] ;
970 -> 994 ;
995 [label="x[1] <= 29.5\ngini = 0.5\nsamples = 35\nvalue = [18, 17]"] ;
537 -> 995 ;
996 [label="gini = 0.0\nsamples = 4\nvalue = [0, 4]"] ;
995 -> 996 ;
997 [label="x[0] <= 29.5\ngini = 0.487\nsamples = 31\nvalue = [18, 13]"] ;
995 -> 997 ;
998 [label="x[1] <= 92.5\ngini = 0.498\nsamples = 15\nvalue = [7, 8]"] ;
997 -> 998 ;
999 [label="x[1] <= 62.5\ngini = 0.473\nsamples = 13\nvalue = [5, 8]"] ;
998 -> 999 ;
1000 [label="x[1] <= 51.5\ngini = 0.49\nsamples = 7\nvalue = [4, 3]"] ;
999 -> 1000 ;
1001 [label="x[1] <= 41.5\ngini = 0.375\nsamples = 4\nvalue = [1, 3]"] ;
1000 -> 1001 ;
1002 [label="x[1] <= 35.0\ngini = 0.5\nsamples = 2\nvalue = [1, 1]"] ;
1001 -> 1002 ;
1003 [label="gini = 0.0\nsamples = 1\nvalue = [0, 1]"] ;
1002 -> 1003 ;
1004 [label="gini = 0.0\nsamples = 1\nvalue = [1, 0]"] ;
1002 -> 1004 ;
1005 [label="gini = 0.0\nsamples = 2\nvalue = [0, 2]"] ;
1001 -> 1005 ;
1006 [label="gini = 0.0\nsamples = 3\nvalue = [3, 0]"] ;
1000 -> 1006 ;
1007 [label="x[3] <= 0.5\ngini = 0.278\nsamples = 6\nvalue = [1, 5]"] ;
999 -> 1007 ;
1008 [label="gini = 0.0\nsamples = 5\nvalue = [0, 5]"] ;
1007 -> 1008 ;
1009 [label="gini = 0.0\nsamples = 1\nvalue = [1, 0]"] ;
1007 -> 1009 ;
1010 [label="gini = 0.0\nsamples = 2\nvalue = [2, 0]"] ;
998 -> 1010 ;
1011 [label="x[1] <= 91.5\ngini = 0.43\nsamples = 16\nvalue = [11, 5]"] ;
997 -> 1011 ;
1012 [label="x[1] <= 81.5\ngini = 0.391\nsamples = 15\nvalue = [11, 4]"] ;
1011 -> 1012 ;
1013 [label="x[1] <= 71.5\ngini = 0.444\nsamples = 12\nvalue = [8, 4]"] ;
1012 -> 1013 ;
1014 [label="x[1] <= 54.0\ngini = 0.32\nsamples = 10\nvalue = [8, 2]"] ;
1013 -> 1014 ;
1015 [label="x[3] <= 0.5\ngini = 0.444\nsamples = 6\nvalue = [4, 2]"] ;
1014 -> 1015 ;
1016 [label="x[1] <= 37.5\ngini = 0.32\nsamples = 5\nvalue = [4, 1]"] ;
1015 -> 1016 ;
1017 [label="gini = 0.0\nsamples = 2\nvalue = [2, 0]"] ;
1016 -> 1017 ;
1018 [label="x[1] <= 44.0\ngini = 0.444\nsamples = 3\nvalue = [2, 1]"] ;
1016 -> 1018 ;
1019 [label="gini = 0.0\nsamples = 1\nvalue = [0, 1]"] ;
1018 -> 1019 ;
1020 [label="gini = 0.0\nsamples = 2\nvalue = [2, 0]"] ;
1018 -> 1020 ;
1021 [label="gini = 0.0\nsamples = 1\nvalue = [0, 1]"] ;
1015 -> 1021 ;
1022 [label="gini = 0.0\nsamples = 4\nvalue = [4, 0]"] ;
1014 -> 1022 ;
1023 [label="gini = 0.0\nsamples = 2\nvalue = [0, 2]"] ;
1013 -> 1023 ;
1024 [label="gini = 0.0\nsamples = 3\nvalue = [3, 0]"] ;
1012 -> 1024 ;
1025 [label="gini = 0.0\nsamples = 1\nvalue = [0, 1]"] ;
1011 -> 1025 ;
1026 [label="x[0] <= 19.5\ngini = 0.188\nsamples = 19\nvalue = [2, 17]"] ;
536 -> 1026 ;
1027 [label="x[0] <= 18.5\ngini = 0.5\nsamples = 2\nvalue = [1, 1]"] ;
1026 -> 1027 ;
1028 [label="gini = 0.0\nsamples = 1\nvalue = [0, 1]"] ;
1027 -> 1028 ;
1029 [label="gini = 0.0\nsamples = 1\nvalue = [1, 0]"] ;
1027 -> 1029 ;
1030 [label="x[0] <= 30.5\ngini = 0.111\nsamples = 17\nvalue = [1, 16]"] ;
1026 -> 1030 ;
1031 [label="x[0] <= 29.5\ngini = 0.219\nsamples = 8\nvalue = [1, 7]"] ;
1030 -> 1031 ;
1032 [label="gini = 0.0\nsamples = 6\nvalue = [0, 6]"] ;
1031 -> 1032 ;
1033 [label="x[3] <= 0.5\ngini = 0.5\nsamples = 2\nvalue = [1, 1]"] ;
1031 -> 1033 ;
1034 [label="gini = 0.0\nsamples = 1\nvalue = [0, 1]"] ;
1033 -> 1034 ;
1035 [label="gini = 0.0\nsamples = 1\nvalue = [1, 0]"] ;
1033 -> 1035 ;
1036 [label="gini = 0.0\nsamples = 9\nvalue = [0, 9]"] ;
1030 -> 1036 ;
1037 [label="x[6] <= 0.5\ngini = 0.474\nsamples = 578\nvalue = [223, 355]"] ;
1 -> 1037 ;
1038 [label="x[34] <= 0.5\ngini = 0.457\nsamples = 425\nvalue = [150, 275]"] ;
1037 -> 1038 ;
1039 [label="x[13] <= 0.5\ngini = 0.452\nsamples = 414\nvalue = [143, 271]"] ;
1038 -> 1039 ;
1040 [label="x[0] <= 48.5\ngini = 0.447\nsamples = 398\nvalue = [134, 264]"] ;
1039 -> 1040 ;
1041 [label="x[28] <= 0.5\ngini = 0.47\nsamples = 223\nvalue = [84, 139]"] ;
1040 -> 1041 ;
1042 [label="x[10] <= 0.5\ngini = 0.475\nsamples = 216\nvalue = [84, 132]"] ;
1041 -> 1042 ;
1043 [label="x[7] <= 0.5\ngini = 0.482\nsamples = 203\nvalue = [82, 121]"] ;
1042 -> 1043 ;
1044 [label="x[0] <= 43.5\ngini = 0.439\nsamples = 80\nvalue = [26, 54]"] ;
1043 -> 1044 ;
1045 [label="x[1] <= 51.5\ngini = 0.486\nsamples = 12\nvalue = [7, 5]"] ;
1044 -> 1045 ;
1046 [label="x[27] <= 0.5\ngini = 0.278\nsamples = 6\nvalue = [1, 5]"] ;
1045 -> 1046 ;
1047 [label="gini = 0.0\nsamples = 5\nvalue = [0, 5]"] ;
1046 -> 1047 ;
1048 [label="gini = 0.0\nsamples = 1\nvalue = [1, 0]"] ;
1046 -> 1048 ;
1049 [label="gini = 0.0\nsamples = 6\nvalue = [6, 0]"] ;
1045 -> 1049 ;
1050 [label="x[19] <= 0.5\ngini = 0.403\nsamples = 68\nvalue = [19, 49]"] ;
1044 -> 1050 ;
1051 [label="x[4] <= 0.5\ngini = 0.382\nsamples = 66\nvalue = [17, 49]"] ;
1050 -> 1051 ;
1052 [label="x[24] <= 0.5\ngini = 0.423\nsamples = 56\nvalue = [17, 39]"] ;
1051 -> 1052 ;
1053 [label="x[1] <= 84.5\ngini = 0.401\nsamples = 54\nvalue = [15, 39]"] ;
1052 -> 1053 ;
1054 [label="x[1] <= 48.5\ngini = 0.435\nsamples = 47\nvalue = [15, 32]"] ;
1053 -> 1054 ;
1055 [label="x[0] <= 47.5\ngini = 0.34\nsamples = 23\nvalue = [5, 18]"] ;
1054 -> 1055 ;
1056 [label="x[33] <= 0.5\ngini = 0.415\nsamples = 17\nvalue = [5, 12]"] ;
1055 -> 1056 ;
1057 [label="x[30] <= 0.5\ngini = 0.375\nsamples = 16\nvalue = [4, 12]"] ;
1056 -> 1057 ;
1058 [label="x[21] <= 0.5\ngini = 0.32\nsamples = 15\nvalue = [3, 12]"] ;
1057 -> 1058 ;
1059 [label="x[23] <= 0.5\ngini = 0.245\nsamples = 14\nvalue = [2, 12]"] ;
1058 -> 1059 ;
1060 [label="x[11] <= 0.5\ngini = 0.153\nsamples = 12\nvalue = [1, 11]"] ;
1059 -> 1060 ;
1061 [label="gini = 0.0\nsamples = 10\nvalue = [0, 10]"] ;
1060 -> 1061 ;
1062 [label="x[3] <= 0.5\ngini = 0.5\nsamples = 2\nvalue = [1, 1]"] ;
1060 -> 1062 ;
1063 [label="gini = 0.0\nsamples = 1\nvalue = [0, 1]"] ;
1062 -> 1063 ;
1064 [label="gini = 0.0\nsamples = 1\nvalue = [1, 0]"] ;
1062 -> 1064 ;
1065 [label="x[2] <= 0.5\ngini = 0.5\nsamples = 2\nvalue = [1, 1]"] ;
1059 -> 1065 ;
1066 [label="gini = 0.0\nsamples = 1\nvalue = [0, 1]"] ;
1065 -> 1066 ;
1067 [label="gini = 0.0\nsamples = 1\nvalue = [1, 0]"] ;
1065 -> 1067 ;
1068 [label="gini = 0.0\nsamples = 1\nvalue = [1, 0]"] ;
1058 -> 1068 ;
1069 [label="gini = 0.0\nsamples = 1\nvalue = [1, 0]"] ;
1057 -> 1069 ;
1070 [label="gini = 0.0\nsamples = 1\nvalue = [1, 0]"] ;
1056 -> 1070 ;
1071 [label="gini = 0.0\nsamples = 6\nvalue = [0, 6]"] ;
1055 -> 1071 ;
1072 [label="x[1] <= 57.0\ngini = 0.486\nsamples = 24\nvalue = [10, 14]"] ;
1054 -> 1072 ;
1073 [label="gini = 0.0\nsamples = 2\nvalue = [2, 0]"] ;
1072 -> 1073 ;
1074 [label="x[0] <= 47.5\ngini = 0.463\nsamples = 22\nvalue = [8, 14]"] ;
1072 -> 1074 ;
1075 [label="x[2] <= 0.5\ngini = 0.401\nsamples = 18\nvalue = [5, 13]"] ;
1074 -> 1075 ;
1076 [label="x[14] <= 0.5\ngini = 0.26\nsamples = 13\nvalue = [2, 11]"] ;
1075 -> 1076 ;
1077 [label="x[15] <= 0.5\ngini = 0.153\nsamples = 12\nvalue = [1, 11]"] ;
1076 -> 1077 ;
1078 [label="gini = 0.0\nsamples = 10\nvalue = [0, 10]"] ;
1077 -> 1078 ;
1079 [label="gini = 0.5\nsamples = 2\nvalue = [1, 1]"] ;
1077 -> 1079 ;
1080 [label="gini = 0.0\nsamples = 1\nvalue = [1, 0]"] ;
1076 -> 1080 ;
1081 [label="x[0] <= 45.5\ngini = 0.48\nsamples = 5\nvalue = [3, 2]"] ;
1075 -> 1081 ;
1082 [label="gini = 0.0\nsamples = 2\nvalue = [2, 0]"] ;
1081 -> 1082 ;
1083 [label="x[27] <= 0.5\ngini = 0.444\nsamples = 3\nvalue = [1, 2]"] ;
1081 -> 1083 ;
1084 [label="gini = 0.0\nsamples = 2\nvalue = [0, 2]"] ;
1083 -> 1084 ;
1085 [label="gini = 0.0\nsamples = 1\nvalue = [1, 0]"] ;
1083 -> 1085 ;
1086 [label="x[18] <= 0.5\ngini = 0.375\nsamples = 4\nvalue = [3, 1]"] ;
1074 -> 1086 ;
1087 [label="gini = 0.0\nsamples = 3\nvalue = [3, 0]"] ;
1086 -> 1087 ;
1088 [label="gini = 0.0\nsamples = 1\nvalue = [0, 1]"] ;
1086 -> 1088 ;
1089 [label="gini = 0.0\nsamples = 7\nvalue = [0, 7]"] ;
1053 -> 1089 ;
1090 [label="gini = 0.0\nsamples = 2\nvalue = [2, 0]"] ;
1052 -> 1090 ;
1091 [label="gini = 0.0\nsamples = 10\nvalue = [0, 10]"] ;
1051 -> 1091 ;
1092 [label="gini = 0.0\nsamples = 2\nvalue = [2, 0]"] ;
1050 -> 1092 ;
1093 [label="x[0] <= 43.5\ngini = 0.496\nsamples = 123\nvalue = [56, 67]"] ;
1043 -> 1093 ;
1094 [label="x[1] <= 66.5\ngini = 0.384\nsamples = 27\nvalue = [7, 20]"] ;
1093 -> 1094 ;
1095 [label="x[3] <= 0.5\ngini = 0.49\nsamples = 14\nvalue = [6, 8]"] ;
1094 -> 1095 ;
1096 [label="x[18] <= 0.5\ngini = 0.278\nsamples = 6\nvalue = [1, 5]"] ;
1095 -> 1096 ;
1097 [label="gini = 0.0\nsamples = 5\nvalue = [0, 5]"] ;
1096 -> 1097 ;
1098 [label="gini = 0.0\nsamples = 1\nvalue = [1, 0]"] ;
1096 -> 1098 ;
1099 [label="x[20] <= 0.5\ngini = 0.469\nsamples = 8\nvalue = [5, 3]"] ;
1095 -> 1099 ;
1100 [label="x[25] <= 0.5\ngini = 0.408\nsamples = 7\nvalue = [5, 2]"] ;
1099 -> 1100 ;
1101 [label="x[23] <= 0.5\ngini = 0.278\nsamples = 6\nvalue = [5, 1]"] ;
1100 -> 1101 ;
1102 [label="gini = 0.0\nsamples = 4\nvalue = [4, 0]"] ;
1101 -> 1102 ;
1103 [label="x[1] <= 51.5\ngini = 0.5\nsamples = 2\nvalue = [1, 1]"] ;
1101 -> 1103 ;
1104 [label="gini = 0.0\nsamples = 1\nvalue = [1, 0]"] ;
1103 -> 1104 ;
1105 [label="gini = 0.0\nsamples = 1\nvalue = [0, 1]"] ;
1103 -> 1105 ;
1106 [label="gini = 0.0\nsamples = 1\nvalue = [0, 1]"] ;
1100 -> 1106 ;
1107 [label="gini = 0.0\nsamples = 1\nvalue = [0, 1]"] ;
1099 -> 1107 ;
1108 [label="x[22] <= 0.5\ngini = 0.142\nsamples = 13\nvalue = [1, 12]"] ;
1094 -> 1108 ;
1109 [label="gini = 0.0\nsamples = 11\nvalue = [0, 11]"] ;
1108 -> 1109 ;
1110 [label="x[3] <= 0.5\ngini = 0.5\nsamples = 2\nvalue = [1, 1]"] ;
1108 -> 1110 ;
1111 [label="gini = 0.0\nsamples = 1\nvalue = [1, 0]"] ;
1110 -> 1111 ;
1112 [label="gini = 0.0\nsamples = 1\nvalue = [0, 1]"] ;
1110 -> 1112 ;
1113 [label="x[29] <= 0.5\ngini = 0.5\nsamples = 96\nvalue = [49, 47]"] ;
1093 -> 1113 ;
1114 [label="x[0] <= 47.5\ngini = 0.499\nsamples = 89\nvalue = [43, 46]"] ;
1113 -> 1114 ;
1115 [label="x[2] <= 0.5\ngini = 0.494\nsamples = 74\nvalue = [33, 41]"] ;
1114 -> 1115 ;
1116 [label="x[1] <= 48.5\ngini = 0.5\nsamples = 52\nvalue = [26, 26]"] ;
1115 -> 1116 ;
1117 [label="x[22] <= 0.5\ngini = 0.434\nsamples = 22\nvalue = [15, 7]"] ;
1116 -> 1117 ;
1118 [label="x[33] <= 0.5\ngini = 0.375\nsamples = 20\nvalue = [15, 5]"] ;
1117 -> 1118 ;
1119 [label="x[24] <= 0.5\ngini = 0.291\nsamples = 17\nvalue = [14, 3]"] ;
1118 -> 1119 ;
1120 [label="x[32] <= 0.5\ngini = 0.219\nsamples = 16\nvalue = [14, 2]"] ;
1119 -> 1120 ;
1121 [label="x[27] <= 0.5\ngini = 0.133\nsamples = 14\nvalue = [13, 1]"] ;
1120 -> 1121 ;
1122 [label="gini = 0.0\nsamples = 12\nvalue = [12, 0]"] ;
1121 -> 1122 ;
1123 [label="x[0] <= 46.5\ngini = 0.5\nsamples = 2\nvalue = [1, 1]"] ;
1121 -> 1123 ;
1124 [label="gini = 0.0\nsamples = 1\nvalue = [1, 0]"] ;
1123 -> 1124 ;
1125 [label="gini = 0.0\nsamples = 1\nvalue = [0, 1]"] ;
1123 -> 1125 ;
1126 [label="x[1] <= 44.5\ngini = 0.5\nsamples = 2\nvalue = [1, 1]"] ;
1120 -> 1126 ;
1127 [label="gini = 0.0\nsamples = 1\nvalue = [1, 0]"] ;
1126 -> 1127 ;
1128 [label="gini = 0.0\nsamples = 1\nvalue = [0, 1]"] ;
1126 -> 1128 ;
1129 [label="gini = 0.0\nsamples = 1\nvalue = [0, 1]"] ;
1119 -> 1129 ;
1130 [label="x[3] <= 0.5\ngini = 0.444\nsamples = 3\nvalue = [1, 2]"] ;
1118 -> 1130 ;
1131 [label="gini = 0.0\nsamples = 1\nvalue = [0, 1]"] ;
1130 -> 1131 ;
1132 [label="x[1] <= 36.5\ngini = 0.5\nsamples = 2\nvalue = [1, 1]"] ;
1130 -> 1132 ;
1133 [label="gini = 0.0\nsamples = 1\nvalue = [1, 0]"] ;
1132 -> 1133 ;
1134 [label="gini = 0.0\nsamples = 1\nvalue = [0, 1]"] ;
1132 -> 1134 ;
1135 [label="gini = 0.0\nsamples = 2\nvalue = [0, 2]"] ;
1117 -> 1135 ;
1136 [label="x[24] <= 0.5\ngini = 0.464\nsamples = 30\nvalue = [11, 19]"] ;
1116 -> 1136 ;
1137 [label="x[1] <= 81.0\ngini = 0.452\nsamples = 29\nvalue = [10, 19]"] ;
1136 -> 1137 ;
1138 [label="x[1] <= 60.5\ngini = 0.483\nsamples = 22\nvalue = [9, 13]"] ;
1137 -> 1138 ;
1139 [label="x[16] <= 0.5\ngini = 0.346\nsamples = 9\nvalue = [2, 7]"] ;
1138 -> 1139 ;
1140 [label="x[19] <= 0.5\ngini = 0.219\nsamples = 8\nvalue = [1, 7]"] ;
1139 -> 1140 ;
1141 [label="gini = 0.0\nsamples = 6\nvalue = [0, 6]"] ;
1140 -> 1141 ;
1142 [label="x[1] <= 52.0\ngini = 0.5\nsamples = 2\nvalue = [1, 1]"] ;
1140 -> 1142 ;
1143 [label="gini = 0.0\nsamples = 1\nvalue = [1, 0]"] ;
1142 -> 1143 ;
1144 [label="gini = 0.0\nsamples = 1\nvalue = [0, 1]"] ;
1142 -> 1144 ;
1145 [label="gini = 0.0\nsamples = 1\nvalue = [1, 0]"] ;
1139 -> 1145 ;
1146 [label="x[3] <= 0.5\ngini = 0.497\nsamples = 13\nvalue = [7, 6]"] ;
1138 -> 1146 ;
1147 [label="gini = 0.0\nsamples = 2\nvalue = [2, 0]"] ;
1146 -> 1147 ;
1148 [label="x[31] <= 0.5\ngini = 0.496\nsamples = 11\nvalue = [5, 6]"] ;
1146 -> 1148 ;
1149 [label="x[1] <= 75.5\ngini = 0.48\nsamples = 10\nvalue = [4, 6]"] ;
1148 -> 1149 ;
1150 [label="x[11] <= 0.5\ngini = 0.32\nsamples = 5\nvalue = [1, 4]"] ;
1149 -> 1150 ;
1151 [label="gini = 0.0\nsamples = 3\nvalue = [0, 3]"] ;
1150 -> 1151 ;
1152 [label="x[1] <= 69.5\ngini = 0.5\nsamples = 2\nvalue = [1, 1]"] ;
1150 -> 1152 ;
1153 [label="gini = 0.0\nsamples = 1\nvalue = [1, 0]"] ;
1152 -> 1153 ;
1154 [label="gini = 0.0\nsamples = 1\nvalue = [0, 1]"] ;
1152 -> 1154 ;
1155 [label="x[16] <= 0.5\ngini = 0.48\nsamples = 5\nvalue = [3, 2]"] ;
1149 -> 1155 ;
1156 [label="x[1] <= 78.5\ngini = 0.375\nsamples = 4\nvalue = [3, 1]"] ;
1155 -> 1156 ;
1157 [label="x[1] <= 77.0\ngini = 0.5\nsamples = 2\nvalue = [1, 1]"] ;
1156 -> 1157 ;
1158 [label="gini = 0.0\nsamples = 1\nvalue = [1, 0]"] ;
1157 -> 1158 ;
1159 [label="gini = 0.0\nsamples = 1\nvalue = [0, 1]"] ;
1157 -> 1159 ;
1160 [label="gini = 0.0\nsamples = 2\nvalue = [2, 0]"] ;
1156 -> 1160 ;
1161 [label="gini = 0.0\nsamples = 1\nvalue = [0, 1]"] ;
1155 -> 1161 ;
1162 [label="gini = 0.0\nsamples = 1\nvalue = [1, 0]"] ;
1148 -> 1162 ;
1163 [label="x[1] <= 97.0\ngini = 0.245\nsamples = 7\nvalue = [1, 6]"] ;
1137 -> 1163 ;
1164 [label="gini = 0.0\nsamples = 5\nvalue = [0, 5]"] ;
1163 -> 1164 ;
1165 [label="x[26] <= 0.5\ngini = 0.5\nsamples = 2\nvalue = [1, 1]"] ;
1163 -> 1165 ;
1166 [label="gini = 0.0\nsamples = 1\nvalue = [0, 1]"] ;
1165 -> 1166 ;
1167 [label="gini = 0.0\nsamples = 1\nvalue = [1, 0]"] ;
1165 -> 1167 ;
1168 [label="gini = 0.0\nsamples = 1\nvalue = [1, 0]"] ;
1136 -> 1168 ;
1169 [label="x[20] <= 0.5\ngini = 0.434\nsamples = 22\nvalue = [7, 15]"] ;
1115 -> 1169 ;
1170 [label="x[32] <= 0.5\ngini = 0.408\nsamples = 21\nvalue = [6, 15]"] ;
1169 -> 1170 ;
1171 [label="x[1] <= 90.0\ngini = 0.375\nsamples = 20\nvalue = [5, 15]"] ;
1170 -> 1171 ;
1172 [label="x[12] <= 0.5\ngini = 0.291\nsamples = 17\nvalue = [3, 14]"] ;
1171 -> 1172 ;
1173 [label="x[22] <= 0.5\ngini = 0.219\nsamples = 16\nvalue = [2, 14]"] ;
1172 -> 1173 ;
1174 [label="x[11] <= 0.5\ngini = 0.133\nsamples = 14\nvalue = [1, 13]"] ;
1173 -> 1174 ;
1175 [label="gini = 0.0\nsamples = 12\nvalue = [0, 12]"] ;
1174 -> 1175 ;
1176 [label="x[1] <= 42.5\ngini = 0.5\nsamples = 2\nvalue = [1, 1]"] ;
1174 -> 1176 ;
1177 [label="gini = 0.0\nsamples = 1\nvalue = [0, 1]"] ;
1176 -> 1177 ;
1178 [label="gini = 0.0\nsamples = 1\nvalue = [1, 0]"] ;
1176 -> 1178 ;
1179 [label="x[1] <= 34.5\ngini = 0.5\nsamples = 2\nvalue = [1, 1]"] ;
1173 -> 1179 ;
1180 [label="gini = 0.0\nsamples = 1\nvalue = [1, 0]"] ;
1179 -> 1180 ;
1181 [label="gini = 0.0\nsamples = 1\nvalue = [0, 1]"] ;
1179 -> 1181 ;
1182 [label="gini = 0.0\nsamples = 1\nvalue = [1, 0]"] ;
1172 -> 1182 ;
1183 [label="x[12] <= 0.5\ngini = 0.444\nsamples = 3\nvalue = [2, 1]"] ;
1171 -> 1183 ;
1184 [label="gini = 0.0\nsamples = 2\nvalue = [2, 0]"] ;
1183 -> 1184 ;
1185 [label="gini = 0.0\nsamples = 1\nvalue = [0, 1]"] ;
1183 -> 1185 ;
1186 [label="gini = 0.0\nsamples = 1\nvalue = [1, 0]"] ;
1170 -> 1186 ;
1187 [label="gini = 0.0\nsamples = 1\nvalue = [1, 0]"] ;
1169 -> 1187 ;
1188 [label="x[4] <= 0.5\ngini = 0.444\nsamples = 15\nvalue = [10, 5]"] ;
1114 -> 1188 ;
1189 [label="x[11] <= 0.5\ngini = 0.298\nsamples = 11\nvalue = [9, 2]"] ;
1188 -> 1189 ;
1190 [label="x[3] <= 0.5\ngini = 0.18\nsamples = 10\nvalue = [9, 1]"] ;
1189 -> 1190 ;
1191 [label="gini = 0.0\nsamples = 8\nvalue = [8, 0]"] ;
1190 -> 1191 ;
1192 [label="x[1] <= 43.5\ngini = 0.5\nsamples = 2\nvalue = [1, 1]"] ;
1190 -> 1192 ;
1193 [label="gini = 0.0\nsamples = 1\nvalue = [1, 0]"] ;
1192 -> 1193 ;
1194 [label="gini = 0.0\nsamples = 1\nvalue = [0, 1]"] ;
1192 -> 1194 ;
1195 [label="gini = 0.0\nsamples = 1\nvalue = [0, 1]"] ;
1189 -> 1195 ;
1196 [label="x[24] <= 0.5\ngini = 0.375\nsamples = 4\nvalue = [1, 3]"] ;
1188 -> 1196 ;
1197 [label="gini = 0.0\nsamples = 3\nvalue = [0, 3]"] ;
1196 -> 1197 ;
1198 [label="gini = 0.0\nsamples = 1\nvalue = [1, 0]"] ;
1196 -> 1198 ;
1199 [label="x[1] <= 83.5\ngini = 0.245\nsamples = 7\nvalue = [6, 1]"] ;
1113 -> 1199 ;
1200 [label="gini = 0.0\nsamples = 6\nvalue = [6, 0]"] ;
1199 -> 1200 ;
1201 [label="gini = 0.0\nsamples = 1\nvalue = [0, 1]"] ;
1199 -> 1201 ;
1202 [label="x[8] <= 0.5\ngini = 0.26\nsamples = 13\nvalue = [2, 11]"] ;
1042 -> 1202 ;
1203 [label="x[1] <= 75.5\ngini = 0.153\nsamples = 12\nvalue = [1, 11]"] ;
1202 -> 1203 ;
1204 [label="gini = 0.0\nsamples = 9\nvalue = [0, 9]"] ;
1203 -> 1204 ;
1205 [label="x[3] <= 0.5\ngini = 0.444\nsamples = 3\nvalue = [1, 2]"] ;
1203 -> 1205 ;
1206 [label="gini = 0.0\nsamples = 2\nvalue = [0, 2]"] ;
1205 -> 1206 ;
1207 [label="gini = 0.0\nsamples = 1\nvalue = [1, 0]"] ;
1205 -> 1207 ;
1208 [label="gini = 0.0\nsamples = 1\nvalue = [1, 0]"] ;
1202 -> 1208 ;
1209 [label="gini = 0.0\nsamples = 7\nvalue = [0, 7]"] ;
1041 -> 1209 ;
1210 [label="x[8] <= 0.5\ngini = 0.408\nsamples = 175\nvalue = [50, 125]"] ;
1040 -> 1210 ;
1211 [label="x[22] <= 0.5\ngini = 0.434\nsamples = 132\nvalue = [42, 90]"] ;
1210 -> 1211 ;
1212 [label="x[0] <= 49.5\ngini = 0.443\nsamples = 127\nvalue = [42, 85]"] ;
1211 -> 1212 ;
1213 [label="x[10] <= 0.5\ngini = 0.361\nsamples = 38\nvalue = [9, 29]"] ;
1212 -> 1213 ;
1214 [label="x[1] <= 86.0\ngini = 0.313\nsamples = 36\nvalue = [7, 29]"] ;
1213 -> 1214 ;
1215 [label="x[23] <= 0.5\ngini = 0.142\nsamples = 26\nvalue = [2, 24]"] ;
1214 -> 1215 ;
1216 [label="x[15] <= 0.5\ngini = 0.077\nsamples = 25\nvalue = [1, 24]"] ;
1215 -> 1216 ;
1217 [label="gini = 0.0\nsamples = 23\nvalue = [0, 23]"] ;
1216 -> 1217 ;
1218 [label="x[4] <= 0.5\ngini = 0.5\nsamples = 2\nvalue = [1, 1]"] ;
1216 -> 1218 ;
1219 [label="gini = 0.0\nsamples = 1\nvalue = [1, 0]"] ;
1218 -> 1219 ;
1220 [label="gini = 0.0\nsamples = 1\nvalue = [0, 1]"] ;
1218 -> 1220 ;
1221 [label="gini = 0.0\nsamples = 1\nvalue = [1, 0]"] ;
1215 -> 1221 ;
1222 [label="x[2] <= 0.5\ngini = 0.5\nsamples = 10\nvalue = [5, 5]"] ;
1214 -> 1222 ;
1223 [label="x[1] <= 93.0\ngini = 0.469\nsamples = 8\nvalue = [3, 5]"] ;
1222 -> 1223 ;
1224 [label="x[19] <= 0.5\ngini = 0.48\nsamples = 5\nvalue = [3, 2]"] ;
1223 -> 1224 ;
1225 [label="x[24] <= 0.5\ngini = 0.375\nsamples = 4\nvalue = [3, 1]"] ;
1224 -> 1225 ;
1226 [label="gini = 0.0\nsamples = 2\nvalue = [2, 0]"] ;
1225 -> 1226 ;
1227 [label="x[1] <= 90.5\ngini = 0.5\nsamples = 2\nvalue = [1, 1]"] ;
1225 -> 1227 ;
1228 [label="gini = 0.0\nsamples = 1\nvalue = [1, 0]"] ;
1227 -> 1228 ;
1229 [label="gini = 0.0\nsamples = 1\nvalue = [0, 1]"] ;
1227 -> 1229 ;
1230 [label="gini = 0.0\nsamples = 1\nvalue = [0, 1]"] ;
1224 -> 1230 ;
1231 [label="gini = 0.0\nsamples = 3\nvalue = [0, 3]"] ;
1223 -> 1231 ;
1232 [label="gini = 0.0\nsamples = 2\nvalue = [2, 0]"] ;
1222 -> 1232 ;
1233 [label="gini = 0.0\nsamples = 2\nvalue = [2, 0]"] ;
1213 -> 1233 ;
1234 [label="x[1] <= 26.5\ngini = 0.467\nsamples = 89\nvalue = [33, 56]"] ;
1212 -> 1234 ;
1235 [label="x[27] <= 0.5\ngini = 0.408\nsamples = 7\nvalue = [5, 2]"] ;
1234 -> 1235 ;
1236 [label="x[5] <= 0.5\ngini = 0.278\nsamples = 6\nvalue = [5, 1]"] ;
1235 -> 1236 ;
1237 [label="gini = 0.0\nsamples = 4\nvalue = [4, 0]"] ;
1236 -> 1237 ;
1238 [label="x[0] <= 51.5\ngini = 0.5\nsamples = 2\nvalue = [1, 1]"] ;
1236 -> 1238 ;
1239 [label="gini = 0.0\nsamples = 1\nvalue = [0, 1]"] ;
1238 -> 1239 ;
1240 [label="gini = 0.0\nsamples = 1\nvalue = [1, 0]"] ;
1238 -> 1240 ;
1241 [label="gini = 0.0\nsamples = 1\nvalue = [0, 1]"] ;
1235 -> 1241 ;
1242 [label="x[0] <= 50.5\ngini = 0.45\nsamples = 82\nvalue = [28, 54]"] ;
1234 -> 1242 ;
1243 [label="x[1] <= 91.0\ngini = 0.499\nsamples = 31\nvalue = [15, 16]"] ;
1242 -> 1243 ;
1244 [label="x[17] <= 0.5\ngini = 0.49\nsamples = 28\nvalue = [12, 16]"] ;
1243 -> 1244 ;
1245 [label="x[27] <= 0.5\ngini = 0.473\nsamples = 26\nvalue = [10, 16]"] ;
1244 -> 1245 ;
1246 [label="x[20] <= 0.5\ngini = 0.461\nsamples = 25\nvalue = [9, 16]"] ;
1245 -> 1246 ;
1247 [label="x[25] <= 0.5\ngini = 0.444\nsamples = 24\nvalue = [8, 16]"] ;
1246 -> 1247 ;
1248 [label="x[26] <= 0.5\ngini = 0.423\nsamples = 23\nvalue = [7, 16]"] ;
1247 -> 1248 ;
1249 [label="x[16] <= 0.5\ngini = 0.375\nsamples = 20\nvalue = [5, 15]"] ;
1248 -> 1249 ;
1250 [label="x[4] <= 0.5\ngini = 0.291\nsamples = 17\nvalue = [3, 14]"] ;
1249 -> 1250 ;
1251 [label="x[1] <= 37.0\ngini = 0.153\nsamples = 12\nvalue = [1, 11]"] ;
1250 -> 1251 ;
1252 [label="gini = 0.0\nsamples = 1\nvalue = [1, 0]"] ;
1251 -> 1252 ;
1253 [label="gini = 0.0\nsamples = 11\nvalue = [0, 11]"] ;
1251 -> 1253 ;
1254 [label="x[15] <= 0.5\ngini = 0.48\nsamples = 5\nvalue = [2, 3]"] ;
1250 -> 1254 ;
1255 [label="x[10] <= 0.5\ngini = 0.444\nsamples = 3\nvalue = [2, 1]"] ;
1254 -> 1255 ;
1256 [label="gini = 0.0\nsamples = 2\nvalue = [2, 0]"] ;
1255 -> 1256 ;
1257 [label="gini = 0.0\nsamples = 1\nvalue = [0, 1]"] ;
1255 -> 1257 ;
1258 [label="gini = 0.0\nsamples = 2\nvalue = [0, 2]"] ;
1254 -> 1258 ;
1259 [label="x[1] <= 50.5\ngini = 0.444\nsamples = 3\nvalue = [2, 1]"] ;
1249 -> 1259 ;
1260 [label="gini = 0.0\nsamples = 1\nvalue = [1, 0]"] ;
1259 -> 1260 ;
1261 [label="x[1] <= 61.5\ngini = 0.5\nsamples = 2\nvalue = [1, 1]"] ;
1259 -> 1261 ;
1262 [label="gini = 0.0\nsamples = 1\nvalue = [0, 1]"] ;
1261 -> 1262 ;
1263 [label="gini = 0.0\nsamples = 1\nvalue = [1, 0]"] ;
1261 -> 1263 ;
1264 [label="x[1] <= 65.5\ngini = 0.444\nsamples = 3\nvalue = [2, 1]"] ;
1248 -> 1264 ;
1265 [label="gini = 0.0\nsamples = 1\nvalue = [0, 1]"] ;
1264 -> 1265 ;
1266 [label="gini = 0.0\nsamples = 2\nvalue = [2, 0]"] ;
1264 -> 1266 ;
1267 [label="gini = 0.0\nsamples = 1\nvalue = [1, 0]"] ;
1247 -> 1267 ;
1268 [label="gini = 0.0\nsamples = 1\nvalue = [1, 0]"] ;
1246 -> 1268 ;
1269 [label="gini = 0.0\nsamples = 1\nvalue = [1, 0]"] ;
1245 -> 1269 ;
1270 [label="gini = 0.0\nsamples = 2\nvalue = [2, 0]"] ;
1244 -> 1270 ;
1271 [label="gini = 0.0\nsamples = 3\nvalue = [3, 0]"] ;
1243 -> 1271 ;
1272 [label="x[26] <= 0.5\ngini = 0.38\nsamples = 51\nvalue = [13, 38]"] ;
1242 -> 1272 ;
1273 [label="x[28] <= 0.5\ngini = 0.34\nsamples = 46\nvalue = [10, 36]"] ;
1272 -> 1273 ;
1274 [label="x[21] <= 0.5\ngini = 0.32\nsamples = 45\nvalue = [9, 36]"] ;
1273 -> 1274 ;
1275 [label="x[23] <= 0.5\ngini = 0.298\nsamples = 44\nvalue = [8, 36]"] ;
1274 -> 1275 ;
1276 [label="x[5] <= 0.5\ngini = 0.255\nsamples = 40\nvalue = [6, 34]"] ;
1275 -> 1276 ;
1277 [label="x[19] <= 0.5\ngini = 0.198\nsamples = 36\nvalue = [4, 32]"] ;
1276 -> 1277 ;
1278 [label="x[24] <= 0.5\ngini = 0.161\nsamples = 34\nvalue = [3, 31]"] ;
1277 -> 1278 ;
1279 [label="x[1] <= 62.0\ngini = 0.117\nsamples = 32\nvalue = [2, 30]"] ;
1278 -> 1279 ;
